tree
version=v4
num_class=1
num_tree_per_iteration=1
label_index=0
max_feature_idx=31
objective=regression
feature_names=net_moneyness log_moneyness moneyness_sq days sqrt_dte inv_dte is_put vix vix_sq vix_x_dte vix_x_log_moneyness is_atm is_otm is_deep_otm is_itm is_deep_itm dte_under_15 dte_15_to_40 dte_over_40 atm_iv_proxy is_stock is_index is_commodity ticker_aapl ticker_amzn ticker_dowjones ticker_gold ticker_goog ticker_longterm ticker_nq100 ticker_silver ticker_sp500
feature_infos=[0.018835938971557734:2.8451429345617125] [-3.9719885865955802:1.0456133069355078] [0:15.776693332045555] [1.1000578703703703:1040.2696180555556] [1.0488364364238927:32.253210972793944] [0.00096128924909791508:0.90904308485454266] [0:1] [11.5:102.69] [132.25:10545.2361] [12.986934691650111:3254.4898073516156] [-250.75155136503091:96.44982080782367] [0:1] [0:1] [0:1] [0:1] [0:1] [0:1] [0:1] [0:1] [0.115:1.0268999999999999] [0:1] [0:1] [0:1] [0:1] [0:1] [0:1] [0:1] [0:1] [0:1] [0:1] [0:1] [0:1]
tree_sizes=4330 4568 4589 4563 4569 4575 4572 4563 4569 4564 4573 4586 4579 4589 4607 4589 4587 4635 4599 4584 4617 4603 4602 4589 4606 4623 4607 4593 4624 4565 4611 4625 4605 4563 4594 4594 4618 4592 4655 4544 4598 4674 4569 4534 4657 4538 4667 4597 4571 4583 4468 4596 4603 4575 4639 4590 4606 4534 4604 4534 4586 4575 4517 4516 4562 4511 4553 4540 4624 4577 4533 4636 4684 4452 4554 4592 4487 4603 4645 4527 4610 4469 4565 4617 4579 4595 4640 4606 4500 4501 4663 4578 4557 4556 4545 4650 4631 4513 4561 4638

Tree=0
num_leaves=48
num_cat=0
split_feature=7 10 7 7 10 5 10 21 1 5 5 10 21 3 2 5 3 6 3 10 3 2 10 5 20 2 10 3 3 31 9 28 10 2 21 22 20 0 2 3 3 6 3 6 10 3 2
split_gain=16649.2 8623.66 6691.51 2085.9 962.326 879.902 802.58 591.269 777.183 544.345 439.668 386.183 276.018 206.101 199.497 198.547 190.677 181.547 157.043 152.918 151.026 150.77 118.613 107.114 105.951 102.185 95.2366 96.0165 94.4498 93.476 78.4128 78.3311 73.3656 69.7155 105.08 67.424 59.9308 59.5831 57.0784 50.3027 47.6202 47.2935 46.5093 45.5981 45.4903 42.5522 45.6949
threshold=32.305000000000007 -1.1466930676480958 40.725000000000001 22.905000000000005 -5.0967272434583597 0.071510037063509016 -0.12780777654811556 1.0000000180025095e-35 0.01366184571048867 0.20167431698828162 0.01879070095251438 -6.2699011680894872 1.0000000180025095e-35 49.950925925925937 0.0083837319811501266 0.20167431698828162 81.248379629629639 1.0000000180025095e-35 3.2034780092592596 -2.8008501993741661 3.2034780092592596 0.32186672671587696 -2.4430192141678551 0.047736784673412656 1.0000000180025095e-35 0.011104065436968057 -10.606289240976597 17.016307870370373 56.019050925925931 1.0000000180025095e-35 56.204525429536872 1.0000000180025095e-35 -0.22734781526075395 5.0926530437683022e-05 1.0000000180025095e-35 1.0000000180025095e-35 1.0000000180025095e-35 0.89893386152994259 0.12016061658637116 137.12913773148151 220.95890046296299 1.0000000180025095e-35 21.009837962962965 1.0000000180025095e-35 -0.53471044675673929 4.1609375000000011 0.091325625824541776
decision_type=2 2 2 2 2 2 2 2 2 2 2 2 2 2 2 2 2 2 2 2 2 2 2 2 2 2 2 2 2 2 2 2 2 2 2 2 2 2 2 2 2 2 2 2 2 2 2
left_child=1 4 9 6 10 19 12 30 18 11 21 13 -3 38 -11 22 36 33 -9 28 -14 39 -7 24 -13 -25 -12 -28 -6 41 -5 -21 42 34 -8 -15 45 -17 -2 -1 -18 -10 -20 -31 -22 -4 -47
right_child=2 3 16 7 5 15 17 8 29 14 26 23 20 35 -16 37 40 -19 32 31 44 -23 -24 25 -26 -27 27 -29 -30 43 -32 -33 -34 -35 -36 -37 -38 -39 -40 -41 -42 -43 -44 -45 -46 46 -48
leaf_value=3.4303891837457572 3.4624976789426802 3.3091615161125354 3.544919931331088 3.4372556009898476 3.4196250786960625 3.448515040852445 3.2661844073140145 3.4125920928661766 3.3425604791565879 3.451327752801987 3.5012964788782428 3.4032052578462846 3.4056656334210524 3.4389060309233996 3.5146845323904978 3.4985852184472948 3.5019755596470281 3.332857439515029 3.3913560354769583 3.3848553373907575 3.3641177860610374 3.4584586339582586 3.4106082024612521 3.4200154147206625 3.4176384617940805 3.4498183780075995 3.4909884556192825 3.4499792451812108 3.3933229773880367 3.3173549810330556 3.3884450756459623 3.3342432342352208 3.3655210672747926 3.3062838839462865 3.3343271598224766 3.4040176516701073 3.4508449556899135 3.4568638834008336 3.5034083506233751 3.4086160455508909 3.4808376676379478 3.3612170095880107 3.3730739196323709 3.3518700970305675 3.3481497348534828 3.5138983849994188 3.533554278996605
leaf_weight=2324 1317 1508 848 418 2866 1783 313 1338 9911 2456 1046 10039 805 3353 803 611 3470 5742 3091 9349 4145 1453 2301 6353 16141 1796 1017 2205 3951 2447 9267 387 7471 12334 2306 844 151 1324 610 2907 2103 1991 3746 579 4577 6002 1933
leaf_count=2324 1317 1508 848 418 2866 1783 313 1338 9911 2456 1046 10039 805 3353 803 611 3470 5742 3091 9349 4145 1453 2301 6353 16141 1796 1017 2205 3951 2447 9267 387 7471 12334 2306 844 151 1324 610 2907 2103 1991 3746 579 4577 6002 1933
internal_value=3.39778 3.37165 3.44514 3.35013 3.41786 3.40484 3.32898 3.3668 3.35928 3.42359 3.44469 3.4201 3.35301 3.44561 3.46696 3.44096 3.51005 3.31617 3.37646 3.39171 3.35995 3.42703 3.42716 3.41554 3.4121 3.42659 3.47235 3.46294 3.40438 3.34127 3.39055 3.38284 3.37308 3.30976 3.32615 3.43189 3.52005 3.47007 3.47548 3.41829 3.49401 3.34568 3.38134 3.32395 3.35574 3.52124 3.5187
internal_weight=163732 105513 58219 71989 33524 22572 31730 40259 30574 43712 10952 40453 11035 6124 3259 6019 14507 20695 15646 16553 9527 6684 4084 34329 26180 8149 4268 3222 6817 14928 9685 9736 14308 14953 2619 4197 8934 1935 1927 5231 5573 11902 6837 3026 8722 8783 7935
internal_count=163732 105513 58219 71989 33524 22572 31730 40259 30574 43712 10952 40453 11035 6124 3259 6019 14507 20695 15646 16553 9527 6684 4084 34329 26180 8149 4268 3222 6817 14928 9685 9736 14308 14953 2619 4197 8934 1935 1927 5231 5573 11902 6837 3026 8722 8783 7935
is_linear=0
shrinkage=1


Tree=1
num_leaves=48
num_cat=0
split_feature=7 10 7 7 10 5 0 5 5 21 1 10 22 10 18 3 2 3 10 3 6 28 3 3 7 29 22 10 10 2 3 3 6 10 20 10 2 3 5 3 3 7 1 7 10 3 2
split_gain=13184.4 6833.46 5384.26 1605.08 989.645 598.263 454.138 453.563 452.675 447.543 535.581 321.738 267.494 197.181 172.198 169.008 163.883 150.943 139.011 155.645 111.252 102.762 101.281 100.783 92.1472 76.6045 73.5583 72.7539 56.7211 55.8289 53.1084 52.7651 52.0021 49.5879 47.4052 44.5843 43.8382 43.6522 42.7582 41.4608 40.1831 39.2395 38.4711 38.3611 36.1555 35.8762 40.3239
threshold=31.925000000000004 -0.86409466387849987 40.725000000000001 22.775000000000002 -3.5279687627626237 0.089735747192174295 1.0012156468511197 0.01879070095251438 0.20167431698828162 1.0000000180025095e-35 0.017742395179552253 -5.2695194547090081 1.0000000180025095e-35 -8.8600515636934478 1.0000000180025095e-35 3.2034780092592596 0.0064501942380308045 81.248379629629639 -7.61993678540298 11.225318287037039 1.0000000180025095e-35 1.0000000180025095e-35 4.9597511574074078 3.2034780092592596 34.725000000000001 1.0000000180025095e-35 1.0000000180025095e-35 -1.8773310717594442 -1.8269466548477544 0.10881338254477503 3.2034780092592596 44.955063657407415 1.0000000180025095e-35 -0.16077340130240911 1.0000000180025095e-35 12.232251060656322 0.44589863401684532 21.977158564814818 0.030230867257134069 20.951261574074078 4.1609375000000011 23.065000000000001 0.18894780983438605 25.455000000000002 -0.34055330097424336 13.007089120370372 0.22705979368767806
decision_type=2 2 2 2 2 2 2 2 2 2 2 2 2 2 2 2 2 2 2 2 2 2 2 2 2 2 2 2 2 2 2 2 2 2 2 2 2 2 2 2 2 2 2 2 2 2 2
left_child=1 4 8 6 7 21 12 13 11 30 23 14 22 36 29 -7 -10 34 -9 -20 40 28 -3 -11 37 -12 -16 -17 31 -2 -5 -6 38 -25 45 -19 -1 -13 -14 42 -8 -30 -26 -35 -24 -4 -47
right_child=2 3 17 9 5 15 20 18 16 10 25 24 32 -15 26 27 -18 35 19 -21 -22 -23 44 33 39 -27 -28 -29 41 -31 -32 -33 -34 43 -36 -37 -38 -39 -40 -41 -42 -43 -44 -45 -46 46 -48
leaf_value=0.031549241619432941 0.055235620436470699 -0.011173692551722276 0.12045999956131823 0.034846273752350589 0.0070861650894492971 0.06036251041990303 -0.050556640780667433 0.081170744715829329 0.045747527395184936 0.0075304371100598138 -0.067044216459494516 0.017744911456415307 -0.14628050799611106 0.0067348499987346308 0.036183600699095798 0.033383528907453608 0.099319750969134618 0.07885837623849698 0.076295758768855665 0.033638114802581227 -0.059444450480439309 -0.057413527229033527 -0.037014514345310556 -0.017404586938629521 0.025883534368977799 -0.047386707503873339 0.0048372470170339743 0.0056503806731498969 -0.026110211132524586 0.094727257997455475 -0.0091779341687661126 -0.012118020616809794 -0.074040384239093829 -0.037678272112186127 0.047234207949117167 0.10015076427652239 0.058791421757875315 0.0034621008566738882 -0.085347300514917804 0.016707732958113706 -0.081584281085343199 -0.0096344468747528531 0.068333083730318683 -0.02218618829645547 -0.051085824091365015 0.10154980695837063 0.12837657905856914
leaf_weight=2128 1653 1245 2716 347 2894 1463 533 1972 2309 1292 3114 3638 273 5814 4106 2002 995 3807 1491 3452 4064 613 4055 6356 4621 10786 1171 2708 3735 594 8194 4368 1192 4214 151 1766 1088 9159 296 16421 12701 3327 275 3620 4946 5272 795
leaf_count=2128 1653 1245 2716 347 2894 1463 533 1972 2309 1292 3114 3638 273 5814 4106 2002 995 3807 1491 3452 4064 613 4055 6356 4621 10786 1171 2708 3735 594 8194 4368 1192 4214 151 1766 1088 9159 296 16421 12701 3327 275 3620 4946 5272 795
internal_value=3.62843e-07 -0.0236344 0.0414593 -0.0445987 0.0144009 -0.001267 -0.0639886 0.0351432 0.0225971 -0.0296144 -0.0360753 0.0194778 -0.0475013 0.0188601 0.0401249 0.0276187 0.0618962 0.0998899 0.0564031 0.0465132 -0.0754308 -0.0132053 -0.0406708 -0.0219619 0.0149234 -0.0517933 0.0292292 0.0174414 -0.011311 0.0656982 -0.00738691 -0.00446483 -0.0872155 -0.0246474 0.108788 0.0856158 0.040775 0.00752321 -0.114707 0.0193655 -0.0803371 -0.0183499 0.0282761 -0.0305219 -0.0447496 0.109842 0.105078
internal_weight=163732 104283 59449 67228 37055 21110 29305 15945 44942 37923 29382 41638 12007 9030 7524 6173 3304 14507 6915 4943 17298 14937 10246 15482 34114 13900 5277 4710 14324 2247 8541 7262 1761 14190 8934 5573 3216 12797 569 21317 13234 7062 4896 7834 9001 8783 6067
internal_count=163732 104283 59449 67228 37055 21110 29305 15945 44942 37923 29382 41638 12007 9030 7524 6173 3304 14507 6915 4943 17298 14937 10246 15482 34114 13900 5277 4710 14324 2247 8541 7262 1761 14190 8934 5573 3216 12797 569 21317 13234 7062 4896 7834 9001 8783 6067
is_linear=0
shrinkage=0.110312


Tree=2
num_leaves=48
num_cat=0
split_feature=7 10 30 7 10 5 10 21 1 5 9 10 5 12 9 2 5 3 10 3 7 21 5 2 22 10 9 2 28 10 31 13 10 3 5 10 5 23 1 22 9 5 1 5 5 5 5
split_gain=10439.6 5425.4 4279.22 1286.04 602.173 526.328 517.696 353.129 515.517 351.474 329.917 257.713 146.96 137.188 136.113 133.939 130.514 124.385 117.409 107.135 103.911 95.8175 76.6816 87.3013 79.6261 76.3787 81.7028 71.6002 63.8351 61.9447 60.3664 59.1601 49.5587 49.2543 46.5378 43.0891 38.8665 37.822 37.2269 37.106 36.9978 36.5174 36.1116 35.9797 35.3887 34.5302 32.5573
threshold=32.135000000000012 -1.1823048820844548 1.0000000180025095e-35 22.775000000000002 -4.5705145506073004 0.062539969664435216 -0.26154613803459975 1.0000000180025095e-35 0.0090911529028540883 0.20167431698828162 172.58144513208967 -7.1142692330063282 0.20167431698828162 1.0000000180025095e-35 278.78734167478439 0.010187177368550635 0.20167431698828162 179.95161458333337 -10.606289240976597 4.1609375000000011 19.105000000000004 1.0000000180025095e-35 0.047736784673412656 0.012155830301541642 1.0000000180025095e-35 -9.6760154642267633 94.517021665247526 0.0009511416843647455 1.0000000180025095e-35 -2.380565511118395 1.0000000180025095e-35 1.0000000180025095e-35 -2.7101253555307054 4.1609375000000011 0.047736784673412656 30.355444641231596 0.011771267113742616 1.0000000180025095e-35 -0.090314296021043114 1.0000000180025095e-35 55.111777763130995 0.005406476621095742 -0.41995636515991486 0.015884535604930333 0.0076807656871708905 0.045561510016046233 0.055678623500841316
decision_type=2 2 2 2 2 2 2 2 2 2 2 2 2 2 2 2 2 2 2 2 2 2 2 2 2 2 2 2 2 2 2 2 2 2 2 2 2 2 2 2 2 2 2 2 2 2 2
left_child=1 4 9 6 10 28 16 33 19 11 25 14 29 20 42 40 21 34 44 -9 -8 -3 24 -24 37 -1 -27 -10 32 -7 -29 -22 43 -5 35 -4 -26 -13 -14 -16 -11 -20 -2 -6 -12 -21 -44
right_child=2 3 17 7 5 12 13 8 27 15 18 22 38 -15 39 -17 -18 -19 41 45 31 -23 23 -25 36 26 -28 30 -30 -31 -32 -33 -34 -35 -36 -37 -38 -39 -40 -41 -42 -43 46 -45 -46 -47 -48
leaf_value=0.082253869687162195 0.090826720627351962 -0.066648519238171167 0.0865418219103187 0.027464773917957701 -0.005463727215696954 0.03539493811413031 -0.067649477845241765 0.0095501814405718945 -0.033948823338360634 0.060596399138657588 0.031091630459701456 0.017338564653096338 0.074554414457110224 -0.077210762733664992 0.032917313146362544 0.097315913452138691 0.0057051036542318505 0.070009116566553134 0.0014551645664478299 -0.023721985661508439 -0.045677721377055808 -0.031631573386296491 0.017482309983307135 0.044669342055564089 -0.0035676628515284854 0.074060954129787721 0.038664160355484679 -0.04498057676642829 -0.049439510109584466 0.0089696191844040353 -0.065800927297086351 -0.068301988142105155 -0.011202108255824756 -0.007872314933503757 0.10525519709949233 0.11003105097378341 0.010011670955081603 -0.0038071903364925454 0.042801893782312687 0.0044350693007934282 0.033249246155828791 0.020051349076144517 0.043362497498788954 0.012604252305313406 0.058869178468403754 -0.012073827309092802 0.079237589515597451
leaf_weight=1190 466 1108 6369 507 3105 1919 7454 1844 5888 953 1531 15955 859 6243 2833 712 1001 3066 2308 7471 7304 6719 6673 1832 4796 1170 2475 8572 420 2468 2117 1746 8258 8825 3718 1129 5512 1100 950 693 1644 2899 933 2360 881 5294 462
leaf_count=1190 466 1108 6369 507 3105 1919 7454 1844 5888 953 1531 15955 859 6243 2833 712 1001 3066 2308 7471 7304 6719 6673 1832 4796 1170 2475 8572 420 2468 2117 1746 8258 8825 3718 1129 5512 1100 950 693 1644 2899 933 2360 881 5294 462
internal_value=5.62368e-07 -0.0208634 0.0371879 -0.0377842 0.0163358 0.00463821 -0.0544742 -0.0247773 -0.0304107 0.020347 0.0354382 0.0175719 0.0314469 -0.0632739 0.0400684 0.0549358 -0.0317971 0.0897331 0.0211326 -0.0153017 -0.0579993 -0.0365935 0.0141925 0.0233413 0.0113484 0.0579754 0.0500367 -0.0437249 -0.00710735 0.0205323 -0.0491077 -0.0500469 -0.00580958 -0.00595074 0.0951208 0.0900873 0.00369369 0.0159746 0.0578997 0.0273214 0.0432966 0.0118099 0.0642029 0.0023391 0.0412501 -0.018892 0.0552733
internal_weight=163732 104886 58846 72093 32793 20339 31575 40518 31186 44564 12454 41255 6196 22747 5387 3309 8828 14282 7619 14609 16504 7827 35868 8505 27363 4835 3645 16577 14143 4387 10689 9050 13723 9332 11216 7498 10308 17055 1809 3526 2597 5207 1861 5465 2412 12765 1395
internal_count=163732 104886 58846 72093 32793 20339 31575 40518 31186 44564 12454 41255 6196 22747 5387 3309 8828 14282 7619 14609 16504 7827 35868 8505 27363 4835 3645 16577 14143 4387 10689 9050 13723 9332 11216 7498 10308 17055 1809 3526 2597 5207 1861 5465 2412 12765 1395
is_linear=0
shrinkage=0.110312


Tree=3
num_leaves=48
num_cat=0
split_feature=7 10 7 7 10 5 0 9 5 21 10 21 1 10 3 5 2 5 29 10 9 3 7 6 7 22 10 6 9 22 7 5 10 2 10 3 2 3 9 6 1 31 10 2 3 3 9
split_gain=8267.62 4315.17 3400.58 993.361 704.33 403.855 321.852 302.707 288.277 249.946 213.603 186.896 240.149 144.229 138.607 123.409 113.144 101.258 91.8621 87.845 84.151 82.8858 76.866 68.8341 67.3717 59.2122 51.5107 50.1534 47.77 47.6383 45.9788 40.318 39.5568 37.6971 37.3004 38.6315 36.3569 34.2498 32.0906 32.0385 29.1171 28.4956 28.0221 27.6237 26.5107 26.1526 25.7873
threshold=31.595000000000002 -0.71479863947316358 40.725000000000001 24.475000000000005 -3.5279687627626237 0.062668844118874509 1.0063674012721904 158.93430102246029 0.20167431698828162 1.0000000180025095e-35 -4.3230682455621601 1.0000000180025095e-35 0.025706439618573756 -8.5408071775690093 4.1609375000000011 0.036969201537459279 0.0047139119633502488 0.0067499691521386036 1.0000000180025095e-35 -6.8852803990468532 83.988076155737659 3.2034780092592596 22.975000000000005 1.0000000180025095e-35 34.805000000000007 1.0000000180025095e-35 -1.8269466548477544 1.0000000180025095e-35 50.759622900056385 1.0000000180025095e-35 19.955000000000002 0.0076807656871708905 -1.6265923588087956 0.072666033983409872 18.581543692107029 4.1609375000000011 0.35341639901189909 46.02422453703705 58.884025954345169 1.0000000180025095e-35 -0.97194748743816162 1.0000000180025095e-35 -1.5771480474897313 0.018293270594175352 179.95161458333337 4.9597511574074078 37.7586223763128
decision_type=2 2 2 2 2 2 2 2 2 2 2 2 2 2 2 2 2 2 2 2 2 2 2 2 2 2 2 2 2 2 2 2 2 2 2 2 2 2 2 2 2 2 2 2 2 2 2
left_child=1 4 8 6 7 22 9 19 10 27 15 38 28 31 32 25 -10 -4 23 -1 45 -11 29 46 -12 36 -16 37 -13 42 -23 40 -7 -17 35 -19 -2 -3 -5 41 -9 -14 -6 -18 -15 -21 -8
right_child=2 3 17 11 5 14 18 13 16 21 24 12 39 44 26 33 43 34 -20 20 -22 30 -24 -25 -26 -27 -28 -29 -30 -31 -32 -33 -34 -35 -36 -37 -38 -39 -40 -41 -42 -43 -44 -45 -46 -47 -48
leaf_value=0.066735130994510145 0.026260085419596329 -0.077206229893586525 0.062804897642126462 0.025469518272378883 -0.010987925076943269 0.056363936074673757 -0.039070457508822425 0.051443971893150163 0.033689225684972873 -0.0039770476629913173 0.0051099231413609184 0.0099338216172033481 -0.039689106277918038 0.01185109454251702 0.021873644851577358 0.045003440203557378 0.063796532170373454 0.10394070911063691 -0.041910109643522452 0.088703297661050978 0.026592989502409167 -0.041958154830274867 -0.0046585843946422767 -0.046805419949037488 0.015256207747730986 0.0060049492166540973 0.0002591201948694725 -0.060625367050189526 -0.017522668094668788 -0.047473976097941739 -0.028946237081926129 0.046691474744497141 0.027631520133181226 0.078752860102832431 0.097648669586150719 0.078832742716250181 0.056221754091812952 -0.12679992468945089 -0.0078092388687167604 -0.022979471157949218 0.017246420994282932 -0.057509483140419593 -0.024817695540232824 0.099108082296822997 -0.0028495496093796468 0.052088865292301272 -0.065360666668597772
leaf_weight=1963 4755 410 3530 369 3788 1045 474 368 2122 1187 13261 836 5917 3613 2176 1382 787 829 3823 308 2614 5676 7615 3387 19939 1757 3498 1156 9873 709 7934 1583 1324 571 2086 8062 550 295 7673 1127 1711 1344 3371 416 2543 1061 12914
leaf_count=1963 4755 410 3530 369 3788 1045 474 368 2122 1187 13261 836 5917 3613 2176 1382 787 829 3823 308 2614 5676 7615 3387 19939 1757 3498 1156 9873 709 7934 1583 1324 571 2086 8062 550 295 7673 1127 1711 1344 3371 416 2543 1061 12914
internal_value=8.34848e-07 -0.0188631 0.0325737 -0.0364414 0.00994713 -0.00214299 -0.048135 0.0279897 0.0177567 -0.036731 0.015293 -0.0203878 -0.0263282 0.016092 0.0179092 0.0303511 0.0490273 0.0790842 -0.0573562 0.0476315 0.0382075 -0.0319364 -0.0125599 -0.0608747 0.0112037 0.0235599 0.00854996 -0.0748303 -0.0153788 -0.0202061 -0.0343745 0.0334253 0.0403172 0.0548924 0.0843155 0.0811808 0.0293726 -0.0980497 -0.00628038 -0.0403053 0.0233132 -0.0429922 -0.0175017 0.0760514 0.00577853 0.0603624 -0.0644317
internal_weight=163732 103685 60047 64395 39290 23526 37256 15764 45540 16658 42215 27139 19097 9818 8043 9015 3325 14507 20598 5946 3983 14797 15483 16775 33200 7062 5674 1861 10709 7868 13610 3662 2369 1953 10977 8891 5305 705 8042 8388 2079 7261 7159 1203 6156 1369 13388
internal_count=163732 103685 60047 64395 39290 23526 37256 15764 45540 16658 42215 27139 19097 9818 8043 9015 3325 14507 20598 5946 3983 14797 15483 16775 33200 7062 5674 1861 10709 7868 13610 3662 2369 1953 10977 8891 5305 705 8042 8388 2079 7261 7159 1203 6156 1369 13388
is_linear=0
shrinkage=0.110312


Tree=4
num_leaves=48
num_cat=0
split_feature=7 10 30 7 10 5 10 9 3 21 1 2 10 21 3 10 3 9 5 7 9 10 24 2 7 10 3 9 10 10 6 10 31 5 22 15 3 6 3 9 1 3 2 2 31 3 20
split_gain=6550.31 3442.6 2666.35 837.15 484.737 357.105 277.863 232.152 215.878 203.987 255.27 172.555 149.548 143.5 122.256 95.0823 85.9371 76.2211 72.6228 70.3554 67.577 65.4511 63.9193 54.2755 54.1663 53.7198 58.9108 47.1887 44.1911 36.9245 36.056 34.9394 33.8139 33.2645 32.5864 32.4488 29.2128 28.6941 32.7097 28.478 28.2885 27.7566 28.1144 25.8665 25.5929 25.4924 28.9991
threshold=32.305000000000007 -0.89887262796330825 1.0000000180025095e-35 23.375000000000004 -4.206358111192757 0.047618129059473754 -0.041732458109315487 161.77900164192613 11.225318287037039 1.0000000180025095e-35 0.021142878900021127 0.015317823972008629 -8.8600515636934478 1.0000000180025095e-35 3.2034780092592596 -12.176320175071281 54.980694444444453 57.222203992658969 0.0089305283963165213 19.185000000000006 32.94775026419908 -2.1694217822690338 1.0000000180025095e-35 0.00043574854990213735 23.065000000000001 -12.176320175071281 20.951261574074078 41.718885112096984 -1.4870687551720072 -0.19292978057776919 1.0000000180025095e-35 9.3983416106623014 1.0000000180025095e-35 0.0083180530826647055 1.0000000180025095e-35 1.0000000180025095e-35 3.2034780092592596 1.0000000180025095e-35 10.026070601851854 376.67149391245545 -0.0860292462014276 3.9911805555555557 0.047523030082022737 0.22705979368767806 1.0000000180025095e-35 30.952453703703707 1.0000000180025095e-35
decision_type=2 2 2 2 2 2 2 2 2 2 2 2 2 2 2 2 2 2 2 2 2 2 2 2 2 2 2 2 2 2 2 2 2 2 2 2 2 2 2 2 2 2 2 2 2 2 2
left_child=1 4 8 6 7 24 13 25 11 36 27 17 18 37 40 39 -4 -2 -10 35 -15 -16 45 -21 34 -1 -27 -11 -19 -29 32 -18 -12 -17 -6 -8 -5 38 -3 -9 -7 -13 -43 -20 -25 -14 -47
right_child=2 3 16 9 5 14 19 15 12 10 30 41 22 20 21 33 31 28 43 23 -22 -23 -24 44 -26 26 -28 29 -30 -31 -32 -33 -34 -35 -36 -37 -38 -39 -40 -41 -42 42 -44 -45 -46 46 -48
leaf_value=0.076763271799719326 0.051529064314067841 -0.03357703255728222 0.078833210097557116 0.025793586574123766 -0.014210684704220341 0.06641012030660047 -0.060064505410685969 0.050227747497112687 0.020390001336099795 0.013062205506775526 -0.035812659775296275 0.093314223618392741 0.012706410754259011 0.010362209064478675 0.026103813988879281 0.003390988395932079 0.055516921107471265 0.034723843638451275 0.042769487278215904 -0.037665198202163699 -0.027785014356253981 0.0044190500687970365 0.0167822972916668 -0.039624142729117413 -0.0030278161076723359 0.056794556730627811 0.030809885647524935 -0.0084980080293042774 0.014142809930383667 -0.020391870670205859 -0.021328567848515025 0.072576242111124803 -0.052356603360191156 0.019005623266876145 -0.04162514335348251 -0.0044736592228612083 -0.006274152626872349 -0.051187360511568317 -0.099730184932413118 0.02389078797983395 0.035294529794095246 0.04635001931519226 0.082105987688804394 0.075405833959987137 -0.055215862172524471 -0.00055049584218086521 0.0091240733751656936
leaf_weight=613 1072 122 7878 359 6491 581 7937 1030 2327 733 7838 318 5366 598 2749 3871 4122 1745 1149 5476 10171 4412 10401 1624 7609 1849 2501 5262 4663 8019 1647 2282 1865 2907 574 130 8937 1124 367 974 924 919 380 400 6219 8266 6931
leaf_count=613 1072 122 7878 359 6491 581 7937 1030 2327 733 7838 318 5366 598 2749 3871 4122 1745 1149 5476 10171 4412 10401 1624 7609 1849 2501 5262 4663 8019 1647 2282 1865 2907 574 130 8937 1124 367 974 924 919 380 400 6219 8266 6931
internal_value=9.51664e-07 -0.0163885 0.0297042 -0.0310573 0.0106778 0.000999275 -0.0434187 0.0271117 0.0162443 -0.0190134 -0.0241366 0.0313762 0.0122927 -0.030265 0.0187541 0.0163324 0.0711099 0.0243085 0.0327186 -0.0510332 -0.0256662 0.0127451 0.00973523 -0.046103 -0.00948647 0.0461812 0.0418614 -0.0141762 0.0197502 -0.0156801 -0.0364333 0.0616022 -0.0389957 0.0100891 -0.0164415 -0.0591692 -0.00503406 -0.0609473 -0.0832889 0.0374387 0.0473289 0.0640484 0.0568436 0.0512237 -0.0519908 0.00617032 0.00386198
internal_weight=163732 105513 58219 68428 37085 23340 33768 13745 43937 34660 25364 9097 34840 12382 8666 8782 14282 7480 3876 21386 10769 7161 30964 13319 14674 4963 4350 14014 6408 13281 11350 6404 9703 6778 7065 8067 9296 1613 489 2004 1505 1617 1299 1549 7843 20563 15197
internal_count=163732 105513 58219 68428 37085 23340 33768 13745 43937 34660 25364 9097 34840 12382 8666 8782 14282 7480 3876 21386 10769 7161 30964 13319 14674 4963 4350 14014 6408 13281 11350 6404 9703 6778 7065 8067 9296 1613 489 2004 1505 1617 1299 1549 7843 20563 15197
is_linear=0
shrinkage=0.110312


Tree=5
num_leaves=48
num_cat=0
split_feature=7 10 30 7 10 3 10 3 5 6 0 1 21 3 3 7 3 22 3 7 0 2 10 9 6 2 3 3 10 31 5 10 28 5 5 10 2 7 5 10 9 5 9 9 2 3 2
split_gain=5211.9 2642.91 2378.6 477.19 447.11 246.117 231.442 208.594 193.607 141.836 137.058 133.921 133.363 106.126 105.384 80.5244 76.5228 72.9159 72.4161 63.6148 59.8172 56.5423 44.9718 45.1282 44.2524 44.1967 43.9149 39.7578 46.2424 38.4672 36.3227 35.5795 35.1056 34.5138 33.067 31.8408 29.6322 29.6097 26.4975 25.7394 38.8035 25.4369 24.9033 23.1436 27.211 22.2625 28.8005
threshold=29.665000000000003 -0.68950146567215098 1.0000000180025095e-35 21.645000000000003 -3.1328947625818464 4.9597511574074078 -2.1694217822690338 17.202534722222229 0.031292709432648641 1.0000000180025095e-35 1.0063674012721904 -0.36453345834630363 1.0000000180025095e-35 28.993975694444448 4.1609375000000011 34.025000000000013 4.1609375000000011 1.0000000180025095e-35 220.95890046296299 13.675000000000002 1.0138235415950139 0.0014389826143824569 -6.2699011680894872 60.419981604996686 1.0000000180025095e-35 0.32186672671587696 4.1609375000000011 3.2034780092592596 -6.6720327126619638 1.0000000180025095e-35 0.0076807656871708905 -1.6265923588087956 1.0000000180025095e-35 0.045561510016046233 0.011771267113742616 30.355444641231596 0.0027530006492962112 18.755000000000006 0.33449283105333788 6.2599095126936612 227.54347537313899 0.010873969497901825 47.226848192607527 158.93430102246029 0.021768373350547199 49.950925925925937 0.036801388001452807
decision_type=2 2 2 2 2 2 2 2 2 2 2 2 2 2 2 2 2 2 2 2 2 2 2 2 2 2 2 2 2 2 2 2 2 2 2 2 2 2 2 2 2 2 2 2 2 2 2
left_child=1 4 6 9 8 38 7 27 11 16 26 30 -12 31 36 -16 -3 25 33 21 -21 -18 -10 -24 29 -9 -5 -2 -29 42 -1 -7 -15 35 -19 -4 -8 -11 -6 -17 -41 -13 -14 44 -22 -23 -47
right_child=2 3 18 10 5 13 14 17 22 37 12 41 24 32 15 39 19 34 -20 20 43 45 23 -25 -26 -27 -28 28 -30 -31 -32 -33 -34 -35 -36 -37 -38 -39 -40 40 -42 -43 -44 -45 -46 46 -48
leaf_value=0.018785513793873894 0.071658196784440506 -0.018709302964251825 0.05950802833591682 0.0062867654222860123 0.020835202909144115 0.010306960724641998 0.021649090485479614 0.019691413215976106 0.056994060263189622 -0.03889179116480343 -0.0070539587295251989 -0.00090242494700325639 -0.0026142264109336073 -0.01366841060376672 -0.0004163469012354734 0.0080556788836805074 -0.086658239117973976 -0.0071155682047770565 0.044106694541907007 -0.036921940669108325 -0.059091949036619497 -0.028209643950365616 0.058071436641983297 0.025795240790677274 -0.020280116010207214 0.046461547688530537 -0.014763212512279085 0.064034519527909423 0.033354830426371232 -0.045145783787868515 0.040918429447914101 -0.0045871496625899972 -0.040400316460204991 0.075062953904482921 0.013520233973099751 0.078389839963091693 0.047483894095187038 -0.02701854420087161 0.045188496726425567 0.037387364033580554 0.012780958074279288 0.012242529242018973 -0.03198090418165353 -0.046362270874071583 -0.0035486687974161566 -0.072001122382762156 -0.025566026647459807
leaf_weight=1708 625 1004 7016 1371 1392 3314 2030 8405 1379 4334 3313 4284 364 9873 13669 15069 1012 1766 2060 4525 4619 358 678 2375 3568 824 10000 803 2352 2991 1917 4746 636 3911 2031 1295 737 6256 894 926 4937 3078 10289 3995 110 678 215
leaf_count=1708 625 1004 7016 1371 1392 3314 2030 8405 1379 4334 3313 4284 364 9873 13669 15069 1012 1766 2060 4525 4619 358 678 2375 3568 824 10000 803 2352 2991 1917 4746 636 3911 2031 1295 737 6256 894 926 4937 3078 10289 3995 110 678 215
internal_value=1.06851e-06 -0.0166816 0.0232197 -0.0310873 0.00675018 -0.00378045 0.0126615 0.0234128 0.0209931 -0.0418488 -0.0219412 0.0131408 -0.0273235 -0.00798542 0.00782589 0.00616896 -0.0482396 0.0167909 0.0632666 -0.05015 -0.0472252 -0.0672561 0.0404542 0.0329733 -0.0312246 0.0220845 -0.0122249 0.0462254 0.0411743 -0.0340856 0.0304951 0.00153701 -0.0152885 0.0664935 0.0039226 0.0624557 0.0285394 -0.0318797 0.0303689 0.0104692 0.0166709 0.00459382 -0.0309778 -0.0525664 -0.0578008 -0.0515259 -0.060847
internal_weight=163732 95276 68456 59002 36274 20855 54174 16806 15419 27106 31896 10987 20525 18569 37368 34601 16516 13026 14282 15512 13249 2263 4432 3053 17212 9229 11371 3780 3155 13644 3625 8060 10509 12222 3797 8311 2767 10590 2286 20932 5863 7362 10653 8724 4729 1251 893
internal_count=163732 95276 68456 59002 36274 20855 54174 16806 15419 27106 31896 10987 20525 18569 37368 34601 16516 13026 14282 15512 13249 2263 4432 3053 17212 9229 11371 3780 3155 13644 3625 8060 10509 12222 3797 8311 2767 10590 2286 20932 5863 7362 10653 8724 4729 1251 893
is_linear=0
shrinkage=0.110312


Tree=6
num_leaves=48
num_cat=0
split_feature=7 10 30 7 10 10 5 3 2 0 21 10 3 5 21 5 7 3 5 2 3 0 3 24 2 10 10 9 10 31 3 2 3 3 15 20 10 9 2 2 6 3 9 10 3 27 5
split_gain=4130.27 2174.8 1721.31 512.824 337.289 221.827 243.525 153.163 130.022 114.96 119.082 111.767 111.316 105.015 85.6706 82.1491 76.7798 57.3183 56.8363 54.3404 52.9299 49.788 48.0647 47.6277 42.3538 35.5701 35.0156 33.5723 31.9337 29.5506 28.4515 26.1004 25.9043 24.9683 24.3425 23.9698 22.6443 22.0631 23.4847 21.4286 20.3041 21.4496 19.5332 19.4315 20.1892 41.3207 19.4149
threshold=31.555000000000003 -1.4441928178958128 1.0000000180025095e-35 24.645000000000003 -0.12780777654811556 -5.728869450032124 0.036969201537459279 11.225318287037039 0.013251273408311582 1.0012156468511197 1.0000000180025095e-35 -7.3736999457608787 74.229120370370381 0.20167431698828162 1.0000000180025095e-35 0.20167431698828162 19.395000000000003 220.95890046296299 0.0089305283963165213 0.00022722184451320806 17.964542824074076 1.0409965640049543 2.0752141203703709 1.0000000180025095e-35 0.59305818630186036 -2.9585069801328485 -12.903063052209189 110.96967139376603 -1.3970988418743873 1.0000000180025095e-35 25.218738425925931 0.1977449032939422 86.098362268518528 28.964490740740747 1.0000000180025095e-35 1.0000000180025095e-35 43.988078922902524 67.141273245243767 0.050762123423493725 0.025304888140464572 1.0000000180025095e-35 30.968148148148153 49.230728221344428 10.662756665796193 32.120873842592601 1.0000000180025095e-35 0.33449283105333788
decision_type=2 2 2 2 2 2 2 2 2 2 2 2 2 2 2 2 2 2 2 2 2 2 2 2 2 2 2 2 2 2 2 2 2 2 2 2 2 2 2 2 2 2 2 2 2 2 2
left_child=1 5 7 4 13 12 32 8 22 20 35 18 26 14 40 25 34 30 -9 -18 42 -12 -2 43 -14 -8 -1 -28 -24 -21 39 -20 -7 -16 -6 -11 -32 -10 -39 -4 41 -3 -5 44 -13 -46 -15
right_child=2 3 17 9 16 6 15 11 37 10 21 23 24 46 33 -17 19 -19 31 29 -22 -23 28 -25 -26 -27 27 -29 -30 -31 36 -33 -34 -35 -36 -37 -38 38 -40 -41 -42 -43 -44 -45 45 -47 -48
leaf_value=0.06107568201754919 0.041315664025335368 -0.036890555668299518 0.059668448324348859 0.022154584678618878 -0.047118528449698001 0.0013178388770707131 0.025569462010532545 0.014513404080964265 0.073736848637022637 0.0041305352682984653 -0.017084711646340595 0.0082939600771299686 0.011012148177483302 -0.0032307520367012726 -0.014058326801185964 0.043836338035738005 -0.026368970856779608 0.039242618302927523 0.031244511165973817 -0.031250295265603051 -0.009937438389057654 -0.031068007516345066 0.027598069939128396 0.013144951882632518 0.040342094445843954 0.0084870665351967217 0.051083674053587831 0.027401325490717342 0.01060300021598197 -0.042938893520465544 0.052697204871843532 0.059792311533690988 -0.0088085095456730926 -0.023682424641900436 0.00057494921099527025 -0.0099440091413161725 0.072100333916472803 0.036751539436130916 0.068970516603092016 0.074765252359863352 -0.03977626099582169 -0.095930237395186704 0.0028799070189476665 0.016110067215778658 -0.0038525864718644024 0.0085043353206892772 0.019396052134969158
leaf_weight=759 982 130 2848 769 9409 5787 2459 2959 398 2191 6673 6193 4253 1200 6600 1526 6740 2060 1625 4068 5501 5790 1846 9959 697 3740 1063 2325 4964 7511 6600 514 6556 6531 132 4487 829 1154 363 1945 1283 180 3796 1486 8863 5239 749
leaf_count=759 982 130 2848 769 9409 5787 2459 2959 398 2191 6673 6193 4253 1200 6600 1526 6740 2060 1625 4068 5501 5790 1846 9959 697 3740 1063 2325 4964 7511 6600 514 6556 6531 132 4487 829 1154 363 1945 1283 180 3796 1486 8863 5239 749
internal_value=1.07127e-06 -0.0134691 0.0227894 -0.0235545 -0.0310045 0.0120303 0.0055526 0.0125098 0.0248368 -0.0121947 -0.0172134 0.00926113 0.0263188 -0.0185935 -0.0217786 0.0209123 -0.0384313 0.0562887 0.0244216 -0.0342491 -0.00265095 -0.0235823 0.0185048 0.00682566 0.0151466 0.0152652 0.0396499 0.0348398 0.015212 -0.0388343 0.0591597 0.0381198 -0.00406088 -0.018846 -0.0464586 -0.00532617 0.0548682 0.0505869 0.044486 0.0658035 -0.0459347 -0.0712937 0.00612952 0.00393594 0.00304406 0.000738208 0.00546756
internal_weight=163732 102905 60827 73740 44533 29165 20068 46545 9707 29207 19141 36838 9097 16673 14724 7725 27860 14282 5098 18319 10066 12463 7792 31740 4950 6199 4147 3388 6810 11579 12222 2139 12343 13131 9541 6678 7429 1915 1517 4793 1593 310 4565 21781 20295 14102 1949
internal_count=163732 102905 60827 73740 44533 29165 20068 46545 9707 29207 19141 36838 9097 16673 14724 7725 27860 14282 5098 18319 10066 12463 7792 31740 4950 6199 4147 3388 6810 11579 12222 2139 12343 13131 9541 6678 7429 1915 1517 4793 1593 310 4565 21781 20295 14102 1949
is_linear=0
shrinkage=0.110312


Tree=7
num_leaves=48
num_cat=0
split_feature=7 10 30 10 7 10 5 3 5 10 3 7 0 6 7 5 3 22 10 5 7 7 13 3 1 3 2 3 2 5 0 31 22 2 10 3 3 3 3 0 2 3 10 2 3 3 27
split_gain=3280.51 1691.16 1486.53 329.595 306.114 156.699 148.546 145.297 135.353 117.25 86.2214 86.1885 88.3454 59.8254 53.5675 47.8992 47.7479 45.6023 41.5169 48.604 37.9145 37.1144 37.4179 34.7249 34.2264 29.4344 28.3387 26.7684 32.2442 24.5548 24.4749 24.3141 23.8694 33.5181 22.7814 21.8324 21.2821 19.9354 19.7669 24.5254 18.946 24.1111 18.8522 18.811 17.5645 16.5496 16.5477
threshold=29.665000000000003 -0.53471044675673929 1.0000000180025095e-35 -2.380565511118395 20.925000000000004 -2.9585069801328485 0.031292709432648641 11.225318287037039 0.039804075501221801 -7.1142692330063282 4.1609375000000011 25.925000000000004 1.0123005808300267 1.0000000180025095e-35 34.805000000000007 0.33449283105333788 54.980694444444453 1.0000000180025095e-35 -6.2699011680894872 0.16694377917063463 19.555000000000003 12.715000000000002 1.0000000180025095e-35 3.2034780092592596 0.01210891885900665 131.0527604166667 0.0030807263450119936 5.9570428240740751 0.081138726256597682 0.0091590275417672562 0.52940731725074164 1.0000000180025095e-35 1.0000000180025095e-35 0.0010546782527732705 11.394586184761492 284.05081018518524 4.1609375000000011 185.01130208333336 22.118310185185187 1.2281438712938721 0.062565515992172263 4.1609375000000011 -23.064685711034876 0.39931159405154953 41.996041666666677 329.01207754629633 1.0000000180025095e-35
decision_type=2 2 2 2 2 2 2 2 2 2 2 2 2 2 2 2 2 2 2 2 2 2 2 2 2 2 2 2 2 2 2 2 2 2 2 2 2 2 2 2 2 2 2 2 2 2 2
left_child=1 3 5 6 13 8 9 15 17 25 26 12 36 21 38 -5 40 30 -8 -20 -9 22 29 -13 -23 43 -7 -10 -29 -3 -2 -14 33 -25 45 -15 -6 -11 39 -12 41 -4 -27 -1 -22 -18 -40
right_child=2 4 16 7 11 10 18 20 27 37 14 23 31 35 -16 -17 34 -19 19 -21 44 24 -24 32 -26 42 -28 28 -30 -31 -32 -33 -34 -35 -36 -37 -38 -39 46 -41 -42 -43 -44 -45 -46 -47 -48
leaf_value=0.024686275514230475 0.03924726702286975 -0.086285531114303704 0.070056972167874182 0.0041300531131094687 -0.0019430589139256343 0.017472345509808005 0.045696005635081055 -0.021372572317129038 0.055119282302467681 0.0039945843430527804 0.0052407375410252668 0.013267723269997705 -0.025906959514887456 -0.029830908089987219 0.0092014593025006326 0.031486729423283316 0.040940912127577424 0.00095184132757965766 0.01870541207494824 0.047857038842331528 -0.0034216855437586313 -0.02948831985211136 -0.035044456463726135 -0.0087260995113537278 -0.042112294047350035 0.039039280961184704 0.040837466163160058 0.027238054396879752 0.055740802345131797 -0.054031806587772867 0.015881143094119556 -0.036247964626137816 0.00096847352032874772 -0.021095820437537705 0.05238855393317083 -0.008144818482989407 -0.017448243562858047 -0.0073912387478345092 -0.0036558748172236615 0.058425883633224741 0.064707329857468493 0.049568766816330788 0.0088696344817325648 0.047198499701474689 -0.012890243055454479 0.020098348693305599 0.0062362976105651826
leaf_weight=1930 591 457 820 5605 1231 2123 1379 3863 821 5502 5454 637 7813 7162 18710 904 3761 2673 3883 848 4514 3958 781 5366 7741 288 900 2523 598 790 7066 4296 1298 5300 2112 614 8639 2835 10019 107 2147 4911 1997 591 5054 531 2589
leaf_count=1930 591 457 820 5605 1231 2123 1379 3863 821 5502 5454 637 7813 7162 18710 904 3761 2673 3883 848 4514 3958 781 5366 7741 288 900 2523 598 790 7066 4296 1298 5300 2112 614 8639 2835 10019 107 2147 4911 1997 591 5054 531 2589
internal_value=1.19932e-06 -0.0132343 0.0184221 0.00434632 -0.0255202 0.0100753 0.014641 -0.00559378 0.0199952 0.00803367 0.00652696 -0.0190929 -0.023263 -0.0358554 0.00505858 0.00793216 0.0500808 0.0133575 0.0288515 0.0239362 -0.0121489 -0.0402361 -0.0540246 -0.0118185 -0.0378432 0.0217554 0.0244356 0.0373845 0.0327093 -0.0658887 0.0176877 -0.0295774 -0.0131548 -0.0148736 0.042995 -0.0281194 -0.0155147 0.000122471 0.000792135 0.00627044 0.0558371 0.0525074 0.0126818 0.0299742 -0.00842375 0.0383657 -0.00162429
internal_weight=163732 95276 68456 39193 56083 54174 19253 19940 14272 13143 39902 34580 21979 21503 36879 6509 14282 10330 6110 4731 13431 13727 2028 12601 11699 4806 3023 3942 3121 1247 7657 12109 11964 10666 6404 7776 9870 8337 18169 5561 7878 5731 2285 2521 9568 4292 12608
internal_count=163732 95276 68456 39193 56083 54174 19253 19940 14272 13143 39902 34580 21979 21503 36879 6509 14282 10330 6110 4731 13431 13727 2028 12601 11699 4806 3023 3942 3121 1247 7657 12109 11964 10666 6404 7776 9870 8337 18169 5561 7878 5731 2285 2521 9568 4292 12608
is_linear=0
shrinkage=0.110312


Tree=8
num_leaves=48
num_cat=0
split_feature=7 10 30 7 10 10 5 3 3 2 2 10 21 9 7 3 3 0 9 2 3 3 3 21 2 5 2 20 3 7 5 10 7 9 3 9 23 10 10 7 10 3 1 13 15 7 10
split_gain=2601.39 1401.59 1029.71 367.868 190.551 159.6 172.631 96.1441 85.606 82.5199 74.4513 71.317 86.6925 64.4418 63.7788 60.796 50.4623 50.033 42.8542 41.7539 39.0895 36.2288 34.3533 33.4544 31.0207 30.2742 27.2032 25.7223 39.642 23.4896 22.7212 22.2253 21.6825 20.9492 22.2287 20.6384 20.4302 20.4215 20.1563 19.8788 19.2931 18.5186 18.1812 18.0268 17.5626 17.554 22.0203
threshold=32.415000000000006 -1.266538504491822 1.0000000180025095e-35 24.645000000000003 -0.26154613803459975 -5.4191339029130994 0.11120542692895349 11.225318287037039 74.229120370370381 0.021180452006787805 0.065064859234746517 -0.029742529994771314 1.0000000180025095e-35 246.55106447978218 19.185000000000006 11.225318287037039 43.026846064814826 1.0224040152563154 57.222203992658969 0.0013894245490901091 128.96092592592595 2.989623842592593 15.081018518518521 1.0000000180025095e-35 0.59305818630186036 0.047736784673412656 0.22705979368767806 1.0000000180025095e-35 81.248379629629639 84.985000000000014 0.33449283105333788 -1.307829827060351 37.965000000000011 246.55106447978218 3.2034780092592596 291.0427759060687 1.0000000180025095e-35 -2.8758750714377492 -1.0335137064224476 22.905000000000005 -2.1166046646569208 3.2034780092592596 0.1625196557147148 1.0000000180025095e-35 1.0000000180025095e-35 12.715000000000002 0.36884400743152007
decision_type=2 2 2 2 2 2 2 2 2 2 2 2 2 2 2 2 2 2 2 2 2 2 2 2 2 2 2 2 2 2 2 2 2 2 2 2 2 2 2 2 2 2 2 2 2 2 2
left_child=1 5 7 4 15 8 16 9 25 18 27 22 36 -12 41 30 40 -16 -2 -14 29 -8 -5 -17 -10 26 -1 28 -9 -4 -3 -29 38 34 -19 -33 -13 -23 -20 -18 -7 -6 -36 -35 45 46 -43
right_child=2 3 20 11 14 6 21 10 24 -11 13 12 19 -15 17 23 39 33 32 -21 -22 37 -24 -25 -26 -27 -28 31 -30 -31 -32 35 -34 43 42 -37 -38 -39 -40 -41 -42 44 -44 -45 -46 -47 -48
leaf_value=0.020041159267884683 0.036590439127720344 -0.0063022728834026473 0.041672684801405284 0.0065917390674865841 -0.014816518593674185 0.0099900687359367277 0.04738940006284012 0.0059633986306464031 0.0077300435545401332 0.047911860461622331 0.039609809824276261 0.0039285676953411822 -0.012446312697373257 0.012722813790096491 -0.021081034663659515 -0.038257058684523775 -0.012199075495544469 0.010969120415670724 0.019607253219308583 -0.024743864160562394 0.035376103790638616 0.031327045993199618 -0.0070763686211172301 -0.016658439944467703 0.03235419885544593 0.046271318842118804 0.041672727739196641 0.013390917633677991 -0.0078923951776715823 0.052499482997340016 0.017205540769879769 -0.0013806649777097829 0.031150842456152794 -0.015183958464882649 -0.037390579151915113 0.008770831416476662 -0.007804202944277922 0.013366989354752607 0.0062144128753135186 -0.0021874941247839899 -0.001122104324786821 -0.056577445858367513 -0.01089795451421496 -0.032041716020958837 0.0022413978028342019 -0.035724366715216435 -0.035818557637066657
leaf_weight=2572 1106 3870 4071 3927 439 4729 672 6699 4796 1168 1296 2785 7163 6649 10766 999 4075 124 2119 6332 4053 1160 5200 6906 715 1202 977 5548 4020 6158 574 4063 726 1419 6507 6088 5135 2298 3857 5919 3179 1287 332 1698 130 7010 1214
leaf_count=2572 1106 3870 4071 3927 439 4729 672 6699 4796 1168 1296 2785 7163 6649 10766 999 4075 124 2119 6332 4053 1160 5200 6906 715 1202 977 5548 4020 6158 574 4063 726 1419 6507 6088 5135 2298 3857 5919 3179 1287 332 1698 130 7010 1214
internal_value=1.2638e-06 -0.0102451 0.0188701 -0.0186306 -0.0251728 0.00892252 0.00362968 0.0104045 0.020285 0.0205702 0.00774873 -0.00936075 -0.0128406 0.0171114 -0.0297984 -0.0135877 -0.00106059 -0.026313 0.0164767 -0.0182174 0.0445577 0.0239576 -0.00119536 -0.0193908 0.0109281 0.0311358 0.0260024 0.00493261 0.000766758 0.0481934 -0.00326382 0.00777679 0.0131543 -0.0318993 -0.0352664 0.0047077 -0.00367838 0.0193964 0.010965 -0.00627024 0.00552314 -0.0370043 -0.0361057 -0.024372 -0.0380136 -0.038564 -0.0465123
internal_weight=163732 106111 57621 73817 43275 32294 22032 43339 10262 8976 34363 30542 21415 7945 30926 12349 17902 20846 7808 13495 14282 4130 9127 7905 5511 4751 3549 26418 10719 10229 4444 15699 6702 10080 6963 10151 7920 3458 5976 9994 7908 10080 6839 3117 9641 9511 2501
internal_count=163732 106111 57621 73817 43275 32294 22032 43339 10262 8976 34363 30542 21415 7945 30926 12349 17902 20846 7808 13495 14282 4130 9127 7905 5511 4751 3549 26418 10719 10229 4444 15699 6702 10080 6963 10151 7920 3458 5976 9994 7908 10080 6839 3117 9641 9511 2501
is_linear=0
shrinkage=0.110312


Tree=9
num_leaves=48
num_cat=0
split_feature=7 1 30 2 7 3 1 5 3 7 1 3 12 3 6 3 22 5 7 3 7 9 2 9 31 7 13 1 5 0 7 2 9 3 0 3 3 2 3 5 0 5 2 2 31 2 2
split_gain=2064.89 998.291 922.996 232.867 208.389 138.013 99.513 92.7405 88.5403 78.872 64.1895 54.6303 52.9371 45.1995 44.1002 40.0443 38.5664 34.0462 33.8441 32.3589 28.7034 25.7376 24.9572 24.9317 23.1223 22.9783 34.9441 22.8191 22.814 21.6991 19.4062 18.9125 18.6804 18.5868 23.6784 18.4729 17.8273 17.183 17.326 16.438 16.3333 16.3281 19.2956 15.7611 15.523 15.1596 14.9762
threshold=29.925000000000004 -0.021278583916619923 1.0000000180025095e-35 0.021180452006787805 21.515000000000004 4.9597511574074078 -0.064497437317463421 0.036969201537459279 27.228032407407408 17.935000000000006 -0.44200150531085441 3.2034780092592596 1.0000000180025095e-35 3.2034780092592596 1.0000000180025095e-35 26.957627314814818 1.0000000180025095e-35 0.025670081223553212 34.675000000000004 3.2034780092592596 26.645000000000003 57.770351441781848 0.036801388001452807 219.92011998073116 1.0000000180025095e-35 13.675000000000002 1.0000000180025095e-35 0.016847383221805037 0.0048311237093100054 1.7289779099158131 25.925000000000004 0.26845021601273583 204.72907182264248 6.0075925925925935 0.68276489899118531 359.11321759259266 312.00869212962965 0.095214260105577084 4.1609375000000011 0.0058091596263130018 0.93038772579388229 0.014912762925940784 0.013657285124796121 0.0021727537368989342 1.0000000180025095e-35 0.0016930138429612034 0.062565515992172263
decision_type=2 2 2 2 2 2 2 2 2 2 2 2 2 2 2 2 2 2 2 2 2 2 2 2 2 2 2 2 2 2 2 2 2 2 2 2 2 2 2 2 2 2 2 2 2 2 2
left_child=1 3 6 5 14 40 7 16 33 -7 35 43 20 45 19 -11 31 29 -15 -3 44 -9 -23 30 -17 26 39 -27 -12 36 -14 -2 -16 -5 -35 -10 -4 38 -19 -21 -1 -29 -43 -6 -13 -8 -30
right_child=2 4 17 8 11 9 13 21 10 15 28 12 23 18 32 24 -18 37 -20 25 -22 22 -24 -25 -26 27 -28 41 46 -31 -32 -33 -34 34 -36 -37 -38 -39 -40 -41 -42 42 -44 -45 -46 -47 -48
leaf_value=0.030222704646102293 0.011807051056337678 -0.0061913273603607551 0.035218647365481907 0.051990391318228163 0.0033287122227303729 -0.021963858828402221 0.013430184418251705 0.053813572677299019 0.027835323605486531 0.0019750281596323232 -0.0046212068788511083 -0.01287246955633194 -0.029903845334556717 0.00032608056940481163 -0.023701934365931064 -0.0031235704237573977 -0.00063289354580946602 0.057532950543847723 0.0071802560680803524 -0.074531568229188758 -0.0058313051808408624 0.02013167679909552 0.038064324518104244 -0.012486695427400199 -0.01301808330438332 -0.024487579005808984 -0.026414928742797435 -0.028765796768925548 0.0031513705675006724 0.05012442166789316 -0.018225426729931903 0.02840801622052827 -0.0094716872518528714 0.051514996727704598 0.022495544913216533 0.0035849801287995866 0.020847909272486819 0.058123435951230422 0.040291061461605722 -0.046660984338196675 0.012889457639966876 -0.040255755994614291 -0.0052517727333851582 0.05701475254946451 -0.021811143427959291 0.033743286858366896 0.01398448398567927
leaf_weight=1001 7298 598 5428 388 1520 3437 1099 422 2269 8304 2464 10545 4355 16166 6581 5741 3155 842 19152 365 6221 3257 1332 2508 5756 4733 916 3764 3548 967 2882 943 1355 394 2605 460 1307 1095 4643 899 1955 4225 201 69 3050 755 2762
leaf_count=1001 7298 598 5428 388 1520 3437 1099 422 2269 8304 2464 10545 4355 16166 6581 5741 3155 842 19152 365 6221 3257 1332 2508 5756 4733 916 3764 3548 967 2882 943 1355 394 2605 460 1307 1095 4643 899 1955 4225 201 69 3050 755 2762
internal_value=1.22642e-06 -0.0104212 0.0147256 0.00257775 -0.0201689 -0.00368384 0.00808318 0.0152389 0.0135927 -0.00653982 0.0089759 -0.014242 -0.0153131 0.00492457 -0.027979 -0.00386193 0.00973831 0.0396431 0.004043 -0.0313674 -0.0120387 0.0277454 0.0253413 -0.0219701 -0.00807778 -0.0323639 -0.04285 -0.030593 0.00437935 0.0346572 -0.0252552 0.0137087 -0.0212733 0.0292678 0.0263179 0.0237497 0.0324321 0.0454753 0.042944 -0.0547413 0.0187643 -0.0341192 -0.0386672 0.00568116 -0.0148788 0.021711 0.00789424
internal_weight=163732 95871 67861 41084 54787 26194 53579 16407 14890 23238 11503 31150 29561 37172 23637 19801 11396 14282 35318 15701 19816 5011 4589 9745 11497 15103 2180 12923 8774 7702 7237 8241 7936 3387 2999 2729 6735 6580 5485 1264 2956 8190 4426 1589 13595 1854 6310
internal_count=163732 95871 67861 41084 54787 26194 53579 16407 14890 23238 11503 31150 29561 37172 23637 19801 11396 14282 35318 15701 19816 5011 4589 9745 11497 15103 2180 12923 8774 7702 7237 8241 7936 3387 2999 2729 6735 6580 5485 1264 2956 8190 4426 1589 13595 1854 6310
is_linear=0
shrinkage=0.110312


Tree=10
num_leaves=48
num_cat=0
split_feature=7 10 30 7 10 4 21 10 10 4 2 2 5 4 10 2 9 4 9 4 9 31 7 4 6 9 24 9 10 4 7 21 7 7 2 10 4 4 23 2 4 31 10 4 9 5 7
split_gain=1641.51 898.701 641.883 241.529 110.857 105.636 100.408 95.6341 83.3759 67.2945 59.1404 56.1026 52.2574 46.3244 43.7294 37.9167 35.0014 33.0514 28.1194 27.1646 26.3696 24.9974 24.4051 24.1362 21.7897 21.5644 21.4764 18.457 18.3791 18.3207 18.2431 18.0744 17.1043 16.6596 24.8332 15.7118 17.9174 15.4073 15.2761 15.2161 19.1558 15.2114 14.0273 13.9529 13.8628 15.5851 13.5287
threshold=32.415000000000006 -1.5771480474897313 1.0000000180025095e-35 20.925000000000004 -0.054378488212581018 5.2180487153565922 1.0000000180025095e-35 -6.6720327126619638 -0.32123870181796493 3.3504206134499479 0.023286288572687577 0.087763996453786089 0.0094354489160608668 4.7030107572701558 -4.0924679787515208 0.00079267785590322816 35.91527979810877 1.7290528744343803 57.222203992658969 17.663767778410378 325.93554933960849 1.0000000180025095e-35 85.925000000000026 1.7898262492380139 1.0000000180025095e-35 187.43507629734327 1.0000000180025095e-35 41.718885112096984 -14.446006482146663 9.2789203179790913 25.925000000000004 1.0000000180025095e-35 37.535000000000004 12.715000000000002 0.00068342778316729199 -12.903063052209189 2.8231372914948456 5.1920735082233715 1.0000000180025095e-35 0.018851673012632849 4.0053299269887628 1.0000000180025095e-35 -26.002528132722208 2.2270498776196552 47.226848192607527 0.0080566092472289918 26.565000000000001
decision_type=2 2 2 2 2 2 2 2 2 2 2 2 2 2 2 2 2 2 2 2 2 2 2 2 2 2 2 2 2 2 2 2 2 2 2 2 2 2 2 2 2 2 2 2 2 2 2
left_child=1 5 9 8 13 14 38 20 16 10 18 26 -13 27 35 30 -3 -16 -2 22 28 44 -4 -10 33 -26 -11 -5 -7 -9 -8 -18 -20 34 -25 -1 -37 -36 39 -6 -41 -15 -22 -24 -17 -46 -29
right_child=2 3 19 4 6 7 15 29 23 11 -12 12 -14 41 17 21 31 -19 32 -21 42 -23 43 24 25 -27 -28 46 -30 -31 -32 -33 -34 -35 37 36 -38 -39 -40 40 -42 -43 -44 -45 45 -47 -48
leaf_value=0.057569150157612201 0.029744104000417677 0.010135626444220986 0.031305016844851159 0.017226762816382659 -0.0018260261624902386 0.036471454940172857 -0.01538971685610697 0.0030207712003511309 -0.0074849777601589213 0.0018747382371260221 0.041235671473761726 0.0092480936447809012 0.031642006966575091 -0.005322301193812864 0.040639213143250148 0.015471549454950481 -0.02830018135288552 0.010412292498900699 0.0082372748931973418 0.021462425570292199 0.030546131157413781 -0.028755757875744862 0.058886006247841648 -0.055736382757692965 -0.025354232422347807 -0.0090937215063251076 0.0084198974579181192 -0.0019251288944043504 0.017089072702567373 -0.0051755749257007717 -0.0057947029053337295 -0.013250733948324999 0.022548286534849592 -0.028277947929893223 -0.0025706164809002406 0.043617611578204318 0.022264036784345208 -0.035492208010448126 -0.0064242380478951554 0.076013721738047366 0.011248738921754497 -0.015412828917300177 0.0041992575525141894 0.039781942205981941 -0.010848495080872354 -0.021329539518141039 0.0080517269049910009
leaf_weight=218 1117 706 5392 994 1939 744 7882 6151 772 19075 1063 4563 1756 6146 478 147 1146 5506 5552 1549 272 3768 502 715 4546 1271 8969 5198 2989 7205 3476 6377 1244 10802 210 609 2240 985 5177 59 831 2582 2516 6839 2329 6700 2425
leaf_count=218 1117 706 5392 994 1939 744 7882 6151 772 19075 1063 4563 1756 6146 478 147 1146 5506 5552 1549 272 3768 502 715 4546 1271 8969 5198 2989 7205 3476 6377 1244 10802 210 609 2240 985 5177 59 831 2582 2516 6839 2329 6700 2425
internal_value=1.22304e-06 -0.00813808 0.01499 -0.0143532 -0.00975803 0.00844432 -0.0135771 0.0039458 -0.0226405 0.00830603 0.0168109 0.00608418 0.0154737 -0.00264408 0.0183226 -0.0171067 -0.0133415 0.0128308 0.0135268 0.0352712 0.0148957 -0.0211887 0.03695 -0.0266045 -0.0274008 -0.0218028 0.00396817 0.00309321 0.0209575 -0.00140078 -0.0124538 -0.0155455 0.0108588 -0.0299613 -0.0394689 0.0290326 0.0268371 -0.0297118 -0.0028624 0.00365534 0.0155915 -0.00830833 0.00677602 0.0410932 -0.0180797 -0.018627 0.00124894
internal_weight=163732 106111 57621 77183 49653 28928 32308 19877 27530 43339 8976 34363 6319 17345 9051 24302 8229 5984 7913 14282 6521 12944 12733 19301 18529 5817 28044 8617 3733 13356 11358 7523 6796 12712 1910 3067 2849 1195 8006 2829 890 8728 2788 7341 9176 9029 7623
internal_count=163732 106111 57621 77183 49653 28928 32308 19877 27530 43339 8976 34363 6319 17345 9051 24302 8229 5984 7913 14282 6521 12944 12733 19301 18529 5817 28044 8617 3733 13356 11358 7523 6796 12712 1910 3067 2849 1195 8006 2829 890 8728 2788 7341 9176 9029 7623
is_linear=0
shrinkage=0.110312


Tree=11
num_leaves=48
num_cat=0
split_feature=7 30 0 0 7 0 3 5 1 7 22 5 6 28 0 31 5 0 5 9 9 5 3 2 1 1 3 5 7 1 2 5 2 3 2 9 21 2 2 5 5 2 9 3 3 9 3
split_gain=1308.12 645.357 596.267 118.346 104.217 103.104 80.3795 77.4196 65.3237 45.0707 42.7523 42.4828 30.3622 27.1672 27.0891 26.644 25.8114 25.3781 24.292 23.6276 21.0987 20.9708 20.6994 20.1947 18.8556 18.4128 18.3483 17.6112 15.7349 23.9229 15.2226 14.9386 19.4761 14.787 18.1574 14.3258 13.5864 16.1291 13.4844 17.7547 13.3896 13.2637 12.8592 12.248 12.0691 11.9896 11.8586
threshold=27.395000000000003 1.0000000180025095e-35 0.96623126140552495 0.83296028297642166 20.625000000000004 0.96267880981248621 8.9681365740740748 0.047736784673412656 0.005069755138853234 33.795000000000009 1.0000000180025095e-35 0.015160428124174433 1.0000000180025095e-35 1.0000000180025095e-35 0.85242558795627532 1.0000000180025095e-35 0.089735747192174295 1.1009280631452933 0.025670081223553212 41.718885112096984 32.94775026419908 0.33449283105333788 2.0752141203703709 0.35341639901189909 0.09890925645064079 -0.49858669533756345 119.22620949074076 0.022747383721778425 12.715000000000002 0.066400687843246028 0.038084477823090809 0.082104694884504073 0.18523607324444191 11.225318287037039 0.027686387973099733 47.226848192607527 1.0000000180025095e-35 0.0024364026688144737 0.049084522206052847 0.023822834214189192 0.0076807656871708905 0.0091397550958014009 282.42804380853687 25.005642361111114 211.99629629629632 47.226848192607527 2.0752141203703709
decision_type=2 2 2 2 2 2 2 2 2 2 2 2 2 2 2 2 2 2 2 2 2 2 2 2 2 2 2 2 2 2 2 2 2 2 2 2 2 2 2 2 2 2 2 2 2 2 2
left_child=2 5 3 11 12 7 21 10 19 16 23 25 20 27 -9 35 36 45 24 -6 -4 41 -16 -2 -3 -1 -12 -8 29 -22 46 32 -13 34 -11 -10 -7 -38 -35 -40 -25 -5 -37 -21 -14 -18 -20
right_child=1 18 4 6 8 9 13 14 15 33 26 31 44 -15 22 -17 17 -19 30 43 28 -23 -24 40 -26 -27 -28 -29 -30 -31 -32 -33 -34 38 -36 42 37 -39 39 -41 -42 -43 -44 -45 -46 -47 -48
leaf_value=0.016865211383725934 0.0095269492362745813 0.02300033345093527 -0.0047573235583289629 0.0029310353419380319 0.012221359410453386 -0.0022208837405171414 -0.0083594345537813339 0.033780713463109825 0.0031746025611202743 0.0096154176597912349 0.0039523759755391349 0.012515041310881313 -0.018832288838559742 -0.022637836020395829 0.039178523016769606 -0.022453120385305468 0.022269229954436177 0.033328366392465329 0.057081153607976713 -0.0042815936737343263 -0.046623226041278693 0.026990400412212148 0.015016494195916254 0.015232384730994348 0.03433026047882775 0.0018974893918702928 -0.0098324289183048426 -0.00087678248189322107 -0.025479070169683992 -0.020582054391349469 0.043762786655356503 0.033332097306971238 0.030371650299020503 0.0023215740770899389 0.040019503591233033 -0.016480891625005826 -0.004936561029814995 -0.021068916106844984 0.0069006988287587398 0.028985103419432081 0.042353587548484541 0.017058198037104889 -0.0079828103271919471 -0.011371777028640504 -0.003994534698223794 0.0012637133407477907 0.03115596245538144
leaf_weight=1333 12033 4869 535 2598 761 10981 7559 1615 571 3934 3085 2891 6905 1084 477 6646 358 359 227 5938 1119 800 4504 533 2833 4001 1897 7754 10324 699 2217 841 1001 12716 254 10201 2330 1115 3982 498 380 1174 2754 5924 739 4247 4136
leaf_count=1333 12033 4869 535 2598 761 10981 7559 1615 571 3934 3085 2891 6905 1084 477 6646 358 359 227 5938 1119 800 4504 533 2833 4001 1897 7754 10324 699 2217 841 1001 12716 254 10201 2330 1115 3982 498 380 1174 2754 5924 739 4247 4136
internal_value=1.2479e-06 0.0101406 -0.00958719 0.00256035 -0.016685 0.00549457 -0.00215948 0.0111465 -0.0128382 0.00209499 0.00738655 0.0123911 -0.0228926 -0.00576596 0.0213645 -0.0167328 -0.00175648 0.00510417 0.0313811 -0.00661397 -0.0262045 0.0107736 0.017335 0.0107281 0.0271702 0.00563966 -0.00129685 -0.00457071 -0.0271492 -0.0366213 0.036307 0.0199981 0.0171119 0.00558732 0.0114651 -0.0139212 -0.00411741 -0.0101609 0.00415541 0.00935937 0.0265419 0.00733023 -0.0146749 -0.00782297 -0.0173984 0.0028996 0.0325127
internal_weight=163732 79580 84152 31036 53116 65298 20969 24524 32795 40774 17928 10067 20321 16397 6596 20172 19390 4964 14282 12623 12677 4572 4981 12946 7702 5334 4982 15313 12142 1818 6580 4733 3892 21384 4188 13526 14426 3445 17196 4480 913 3772 12955 11862 7644 4605 4363
internal_count=163732 79580 84152 31036 53116 65298 20969 24524 32795 40774 17928 10067 20321 16397 6596 20172 19390 4964 14282 12623 12677 4572 4981 12946 7702 5334 4982 15313 12142 1818 6580 4733 3892 21384 4188 13526 14426 3445 17196 4480 913 3772 12955 11862 7644 4605 4363
is_linear=0
shrinkage=0.110312


Tree=12
num_leaves=48
num_cat=0
split_feature=7 10 30 7 1 4 22 2 10 5 4 4 9 10 7 21 1 4 5 7 9 10 4 10 2 4 10 4 12 9 7 10 22 9 2 9 1 31 4 1 5 6 10 4 4 1 10
split_gain=1041.99 574.297 342.914 220.236 113.939 85.0471 57.2535 48.0351 43.8069 43.1598 40.9189 38.4335 33.272 31.9234 25.431 23.8447 41.3783 21.804 21.2954 21.6375 20.1996 18.8357 16.547 16.4184 15.9848 14.1209 13.9994 13.9935 13.8547 20.9428 13.1747 12.8084 12.5866 11.9201 21.1249 12.0245 11 10.3428 10.2361 10.2093 10.1774 10.1707 10.0898 10.7517 9.54383 9.54034 9.20519
threshold=33.795000000000009 -1.7243616808397346 1.0000000180025095e-35 25.455000000000002 0.0011451902124249363 6.480435299164979 1.0000000180025095e-35 0.10881338254477503 -6.4598300195046034 0.14306447753740206 2.0398376149497781 2.0398376149497781 50.759622900056385 -3.7365052786132291 19.955000000000002 1.0000000180025095e-35 0.040093489248832458 11.617170053257153 0.0030394855558124193 94.435000000000016 40.316650543056817 -12.903063052209189 18.950282783862665 15.367212583324916 0.013251273408311582 4.1475938461574247 -0.44334638645222851 5.4031251673517149 1.0000000180025095e-35 188.98331709623673 18.755000000000006 -15.417623148526291 1.0000000180025095e-35 246.55106447978218 0.040431564996068585 32.94775026419908 -0.694986790068708 1.0000000180025095e-35 3.7404221823012516 0.059923602115913653 0.33449283105333788 1.0000000180025095e-35 -0.24399916514627931 5.9317750177016384 4.5772548076383632 -0.14080849598954939 7.6157039125298587
decision_type=2 2 2 2 2 2 2 2 2 2 2 2 2 2 2 2 2 2 2 2 2 2 2 2 2 2 2 2 2 2 2 2 2 2 2 2 2 2 2 2 2 2 2 2 2 2 2
left_child=1 5 11 4 6 8 10 32 31 -10 -3 24 39 17 33 -14 42 21 -4 23 -16 -13 36 25 -2 45 44 30 -22 -30 -12 -1 37 34 35 -6 -9 -7 -33 -5 -11 -39 43 -17 -8 -20 -15
right_child=2 3 18 12 14 7 26 22 9 40 27 13 15 46 20 16 -18 -19 19 -21 28 -23 -24 -25 -26 -27 -28 -29 29 -31 -32 38 -34 -35 -36 -37 -38 41 -40 -41 -42 -43 -44 -45 -46 -47 -48
leaf_value=0.047596321123112045 0.017005824758637277 0.0049430695319829313 0.010234046688423776 0.011449970645224501 -0.0087998766510072879 0.0024445239379495879 0.0033895999094344597 0.025813469845692966 0.0073131282755277494 0.02026279330764726 -0.014611096729051422 0.033111363393107406 -0.0010063205214378567 0.0035404285326005982 0.0052534671084336852 0.0060842990939583121 -0.016080787971682591 0.0059005794824458649 0.044155391286539031 0.040721826777133242 -0.015065353451877326 0.014417841625136225 -0.0022753617065413498 0.03462133868049945 0.040805330400676916 0.022189736979334407 -0.034478267202667577 -0.012428192050970855 -0.025116971723845791 -0.011639104851448716 -0.0046773346816164013 0.038154216030631918 -0.01176239696307842 -0.015718077907719608 0.0061802120620580983 -0.027817221428805602 0.011540017039577263 -0.019201792363174444 0.019925082605857267 0.049872128589894489 0.037664889061944942 -0.0025585508137349138 -0.0059258590866722305 -0.0059983163695599365 -0.022422189330350679 0.028188513368665329 0.0089091392651875559
leaf_weight=318 1848 2706 784 1202 428 6561 221 845 8796 1682 2023 799 16240 19374 476 2249 4407 3262 593 1667 9689 3669 854 2830 422 6404 1190 10028 5199 1924 8250 480 1312 1706 243 7667 2961 504 1727 90 542 3906 6478 1489 821 2004 4862
leaf_count=318 1848 2706 784 1202 428 6561 221 845 8796 1682 2023 799 16240 19374 476 2249 4407 3262 593 1667 9689 3669 854 2830 422 6404 1190 10028 5199 1924 8250 480 1312 1706 243 7667 2961 504 1727 90 542 3906 6478 1489 821 2004 4862
internal_value=1.27766e-06 -0.00570937 0.0135621 -0.0103813 -0.0147798 0.00727372 -0.00943513 0.00206418 0.0137897 0.0107856 -0.00779817 0.00757194 -0.00318986 0.0065867 -0.0197148 -0.003916 -0.00714719 0.0127592 0.0279203 0.028947 -0.0171485 0.0177649 0.0115994 0.0272859 0.0214402 0.0249773 -0.0263015 -0.00949664 -0.017783 -0.0214779 -0.00663436 0.0268948 -0.00155367 -0.0241307 -0.0258506 -0.0268126 0.0147128 -0.000332174 0.0238994 0.014149 0.0245132 -0.00446319 -0.00329259 0.00127087 -0.0169481 0.0318441 0.00461768
internal_weight=163732 115214 48518 84726 52571 30488 25239 16943 13545 11020 23007 34236 32155 31966 27332 30863 14623 7730 14282 13498 17288 4468 4660 11831 2270 9001 2232 20301 16812 7123 10273 2525 12283 10044 8338 8095 3806 10971 2207 1292 2224 4410 10216 3738 1042 2597 24236
internal_count=163732 115214 48518 84726 52571 30488 25239 16943 13545 11020 23007 34236 32155 31966 27332 30863 14623 7730 14282 13498 17288 4468 4660 11831 2270 9001 2232 20301 16812 7123 10273 2525 12283 10044 8338 8095 3806 10971 2207 1292 2224 4410 10216 3738 1042 2597 24236
is_linear=0
shrinkage=0.110312


Tree=13
num_leaves=48
num_cat=0
split_feature=7 10 30 7 10 3 2 9 3 21 1 9 10 10 3 7 9 21 7 9 3 3 3 2 6 10 10 3 6 3 0 10 6 20 29 10 15 2 9 29 3 10 3 2 15 20 2
split_gain=826.716 456.623 254.07 193.11 85.8119 71.4208 49.9218 36.8102 36.3385 33.5984 43.026 33.0208 23.8937 23.8834 23.6051 22.7609 22.1342 20.3546 19.3778 18.9138 17.2348 15.7624 15.158 15.0481 14.9291 13.2108 12.7952 12.4501 11.9166 11.2078 10.6202 10.5563 10.424 10.3735 10.1491 10.1489 9.94083 9.90671 9.63371 9.52307 9.39751 9.82907 9.32034 10.53 9.26272 9.02305 9.00888
threshold=34.355000000000011 -1.8773310717594442 1.0000000180025095e-35 24.785000000000004 -0.19292978057776919 22.959895833333338 0.10397270636952093 50.759622900056385 22.118310185185187 1.0000000180025095e-35 0.024762331922599603 69.997707557252099 -5.2695194547090081 -3.1328947625818464 207.05352430555558 19.105000000000004 50.759622900056385 1.0000000180025095e-35 86.405000000000015 37.7586223763128 118.09303819444446 116.94814814814816 2.989623842592593 0.00079267785590322816 1.0000000180025095e-35 -30.167310168592049 -14.446006482146663 30.952453703703707 1.0000000180025095e-35 329.01207754629633 1.3165810966354983 -0.35742495463962504 1.0000000180025095e-35 1.0000000180025095e-35 1.0000000180025095e-35 -15.417623148526291 1.0000000180025095e-35 0.0049983190247823292 367.81120443665537 1.0000000180025095e-35 4.9597511574074078 23.314402231002759 31.960104166666671 0.050762123423493725 1.0000000180025095e-35 1.0000000180025095e-35 0.24607427413831554
decision_type=2 2 2 2 2 2 2 2 2 2 2 2 2 2 2 2 2 2 2 2 2 2 2 2 2 2 2 2 2 2 2 2 2 2 2 2 2 2 2 2 2 2 2 2 2 2 2
left_child=1 5 11 4 8 12 20 -5 22 -9 27 37 46 21 35 30 -14 24 42 -17 -7 26 -3 -21 -10 -16 -13 31 -25 40 36 -11 39 -22 -29 -8 38 -2 -6 -12 -20 -42 43 -4 -15 -23 -1
right_child=2 3 18 7 15 6 14 9 17 10 32 13 16 44 25 19 -18 -19 29 23 33 45 -24 28 -26 -27 -28 34 -30 -31 -32 -33 -34 -35 -36 -37 -38 -39 -40 -41 41 -43 -44 -45 -46 -47 -48
leaf_value=0.02446413309453483 0.016014928226194828 0.012249405049673515 0.021074765404703946 0.011533532028733227 -0.023392191193479447 0.0036151699293127709 0.028235613085361821 -0.00065418376674010697 -0.054592571052013247 0.0056990301461948886 -0.023305451616857844 0.032077803456896779 0.026368591758923508 0.0039498668446530279 0.030080519835855978 0.0032351066514499593 0.0093273778371693473 -0.010169648924483929 0.044395617266631077 -0.012998113051656407 -0.0062190661864806084 -0.0055071362098715023 -0.0036792410282789007 -0.020295021962219488 -0.020276711112766108 0.00050777163978506419 0.013610359102643098 -0.015740413565905682 -0.0062255098215675941 0.011073496678854575 0.0019312239516298723 -0.0032890307196535994 -0.0034252935111203837 0.0035823912294525788 -0.0043134594217096728 0.01454522301845676 0.0081609985363832512 0.034151175785315402 -0.0017922905046576223 -0.013062510679556782 0.026574388848637161 0.037564710227151452 0.016919430479166411 0.036566622591263302 0.019003203994087156 0.008602720257180627 0.051412162975118532
leaf_weight=1686 1029 806 1909 1958 8630 9294 855 18904 181 2542 1403 517 1145 20945 202 659 4882 8600 487 10980 5070 679 7365 8342 1041 1984 3907 1257 804 423 225 4244 1055 1773 3820 2888 128 571 259 5218 5663 1206 3850 744 509 2927 166
leaf_count=1686 1029 806 1909 1958 8630 9294 855 18904 181 2542 1403 517 1145 20945 202 659 4882 8600 487 10980 5070 679 7365 8342 1041 1984 3907 1257 804 423 225 4244 1055 1773 3820 2888 128 571 259 5218 5663 1206 3850 744 509 2927 166
internal_value=1.28127e-06 -0.00485144 0.0126626 -0.00883867 -0.0135672 0.00692188 0.00370244 -0.00321823 -0.00754271 -0.00396977 -0.00717744 0.00706654 0.0159372 0.00622864 0.0123581 -0.017177 0.0125673 -0.0120641 0.0248412 -0.0151507 0.000521818 0.0113604 -0.00210712 -0.0157528 -0.0253845 0.00324839 0.0157728 -0.00301311 -0.0190588 0.0285584 -0.0217328 7.79257e-05 -0.0136124 -0.00367932 -0.00714433 0.0176767 -0.0223235 0.0224982 -0.0227631 -0.0152351 0.0295628 0.0285072 0.0203923 0.0254269 0.00430757 0.00594515 0.0268959
internal_weight=163732 118366 45366 88421 48020 29945 22066 40401 17993 38443 19539 31084 7879 29484 5929 30027 6027 9822 14282 20785 16137 8030 8171 20126 1222 2186 4424 11863 9146 7779 9242 6786 7676 6843 5077 3743 9017 1600 8889 6621 7356 6869 6503 2653 21454 3606 1852
internal_count=163732 118366 45366 88421 48020 29945 22066 40401 17993 38443 19539 31084 7879 29484 5929 30027 6027 9822 14282 20785 16137 8030 8171 20126 1222 2186 4424 11863 9146 7779 9242 6786 7676 6843 5077 3743 9017 1600 8889 6621 7356 6869 6503 2653 21454 3606 1852
is_linear=0
shrinkage=0.110312


Tree=14
num_leaves=48
num_cat=0
split_feature=7 10 30 10 5 2 29 5 2 4 9 4 10 20 6 5 10 0 4 2 23 5 5 10 29 4 2 7 2 5 21 4 2 4 7 0 4 7 9 7 2 12 9 4 5 5 0
split_gain=659.867 336.312 317.54 84.0142 58.1177 70.6922 47.9816 44.7975 44.1235 32.0538 29.9023 27.3357 25.6855 25.034 23.0984 22.5959 18.5234 18.4588 18.1807 17.5611 17.2039 15.6591 15.5612 17.9015 13.4269 13.2268 15.7356 12.8792 13.66 12.9083 27.8797 12.4339 12.2461 11.9415 11.8576 11.7832 11.5865 10.9206 10.8656 10.3062 9.86892 9.49605 10.7532 8.92442 8.78278 8.56704 13.1967
threshold=27.395000000000003 -0.42189053111925384 1.0000000180025095e-35 -3.0454445319738244 0.047736784673412656 0.017787290986915831 1.0000000180025095e-35 0.047736784673412656 0.099042995967968242 11.617170053257153 113.10649011703909 2.0398376149497781 -0.512199900577473 1.0000000180025095e-35 1.0000000180025095e-35 0.0123332495496067 -9.257318251689151 1.0114772226702822 1.7898262492380139 0.025304888140464572 1.0000000180025095e-35 0.0058762512495962203 0.082104694884504073 43.988078922902524 1.0000000180025095e-35 2.8198556076741417 0.099042995967968242 17.975000000000005 0.018851673012632849 0.0058091596263130018 1.0000000180025095e-35 1.4405603484162757 0.00070958190286391995 17.208903003718543 17.975000000000005 1.0384489617551638 8.1842140705915458 81.875000000000014 41.718885112096984 37.965000000000011 0.020060690751273369 1.0000000180025095e-35 209.78479605442394 1.7898262492380139 0.0035208922984312509 0.0064514536883649278 1.20845677363893
decision_type=2 2 2 2 2 2 2 2 2 2 2 2 2 2 2 2 2 2 2 2 2 2 2 2 2 2 2 2 2 2 2 2 2 2 2 2 2 2 2 2 2 2 2 2 2 2 2
left_child=1 3 4 10 8 12 11 24 13 -10 43 35 31 15 27 -2 -12 -15 -9 -17 36 -16 23 33 -5 -7 -27 28 29 30 -13 -6 -29 37 -23 -3 -19 -4 -8 -14 -24 -40 -43 -1 -18 -34 -47
right_child=2 6 22 7 5 25 38 18 9 -11 16 14 39 17 21 19 44 20 -20 -21 -22 34 40 -25 -26 26 -28 32 -30 -31 -32 -33 45 -35 -36 -37 -38 -39 41 -41 -42 42 -44 -45 -46 46 -48
leaf_value=0.043939089004968054 -0.0072095998580151317 -0.0047748096611879088 0.014026222580662495 -0.0090090482681133687 0.025735985004191976 0.034978494009855386 0.0068159725472995121 0.013082767034554757 0.019846582132036425 0.0045376470706437128 0.013173633552837233 -0.049252587997384696 0.0013051131115383071 0.0061019730352297619 -0.0012613762144386862 -0.0010220149500551289 -0.0048268111177659726 -0.0037431097408312862 0.00069365272719153215 0.012914927316904648 -0.007443605316954531 -0.021019918279916509 0.024456490347075428 0.032690374300906579 -0.0013298233566430057 0.014803837932695739 0.038554065523636119 -0.01311301907566864 -0.008180868381290075 -0.022516986278584429 -0.0056653021679196596 0.0097233446708077653 -0.014761790398986148 0.0099545216133479688 -0.011251391407784745 0.044985697400342875 0.0052636418957675325 0.022796362034551963 -0.0068142939334695576 0.017358649549054059 0.038226956780108498 -0.014826344375091963 -0.0030024973810943902 0.016376922739404224 0.0044450075334998033 -0.023502786475128403 0.0022061586826492363
leaf_weight=150 7691 2039 2381 9861 655 970 565 1767 2487 5031 2675 653 8397 10813 1430 8416 1581 2564 7811 1265 2998 2052 1698 1271 3854 1737 422 6043 632 3533 246 5944 2837 1573 5763 59 5392 6342 10823 516 1017 4521 1181 2932 5810 5079 255
leaf_count=150 7691 2039 2381 9861 655 970 565 1767 2487 5031 2675 653 8397 10813 1430 8416 1581 2564 7811 1265 2998 2052 1698 1271 3854 1737 422 6043 632 3533 246 5944 2837 1573 5763 59 5392 6342 10823 516 1017 4521 1181 2932 5810 5079 255
internal_value=1.279e-06 -0.00680879 0.00720261 0.00117068 0.00394365 0.00915012 -0.0129034 -0.00280871 0.00186338 0.00960323 0.00822045 -0.0155169 0.00609852 0.000376528 -0.0164108 -0.00274629 0.00530879 0.00286886 0.00298003 0.000799698 -0.000322719 -0.011876 0.0221019 0.0203352 -0.00685136 0.024274 0.0194559 -0.018585 -0.0233646 -0.0255282 -0.0373382 0.011315 -0.0168812 0.0188081 -0.0138179 -0.00336255 0.00236084 0.0204037 -0.00822016 0.00223571 0.0296223 -0.00873454 -0.0123781 0.0177269 0.00246133 -0.0196668 -0.0222735
internal_weight=163732 84152 79580 36441 65298 18641 47711 23293 46657 7518 13148 30621 15512 39139 28523 17372 10066 21767 9578 9681 10954 9245 14282 11567 13715 3129 2159 19278 5064 4432 899 6599 14214 10296 7815 2098 7956 8723 17090 8913 2715 16525 5702 3082 7391 8171 5334
internal_count=163732 84152 79580 36441 65298 18641 47711 23293 46657 7518 13148 30621 15512 39139 28523 17372 10066 21767 9578 9681 10954 9245 14282 11567 13715 3129 2159 19278 5064 4432 899 6599 14214 10296 7815 2098 7956 8723 17090 8913 2715 16525 5702 3082 7391 8171 5334
is_linear=0
shrinkage=0.110312


Tree=15
num_leaves=48
num_cat=0
split_feature=7 0 7 7 5 6 2 2 5 5 7 7 20 3 5 1 9 3 15 1 29 31 2 5 2 9 2 7 2 1 23 31 9 3 26 9 0 3 7 2 7 0 9 5 0 7 1
split_gain=531.068 274.339 206.609 76.5741 57.5419 48.8492 46.0347 34.496 28.7663 24.743 24.3224 23.8735 21.3587 19.2054 18.6586 21.9711 18.2164 17.4172 15.0154 14.843 13.479 13.3465 11.8247 11.7978 11.7633 32.5499 11.6377 11.1751 11.1361 11.1196 10.6491 9.76673 9.2781 8.59527 8.57426 8.43785 8.85667 7.841 7.76876 7.66746 7.81267 15.065 7.13248 7.00894 10.887 6.98829 8.25091
threshold=36.425000000000004 0.94847264415575683 26.645000000000003 80.500000000000014 0.031198234266896177 1.0000000180025095e-35 0.069969422232407361 0.01487111508339441 0.33449283105333788 0.034544130426483459 19.955000000000002 20.825000000000003 1.0000000180025095e-35 211.99629629629632 0.20167431698828162 -0.36453345834630363 57.222203992658969 5.9570428240740751 1.0000000180025095e-35 0.027584878442735886 1.0000000180025095e-35 1.0000000180025095e-35 0.0068452292040016146 0.0030394855558124193 0.067378560147983213 193.64461098558101 1.0002642825163739 94.435000000000016 0.039136463961354701 -0.694986790068708 1.0000000180025095e-35 1.0000000180025095e-35 73.082476255184403 104.97853009259261 1.0000000180025095e-35 158.93430102246029 1.4680711221735947 268.02100694444454 23.165000000000003 0.078061121971297734 12.495000000000003 1.0242430945128167 47.226848192607527 0.062668844118874509 1.0969179314549373 17.815000000000001 0.0062432816682017958
decision_type=2 2 2 2 2 2 2 2 2 2 2 2 2 2 2 2 2 2 2 2 2 2 2 2 2 2 2 2 2 2 2 2 2 2 2 2 2 2 2 2 2 2 2 2 2 2 2
left_child=1 4 5 9 6 8 12 17 10 34 39 37 20 29 15 -9 22 -6 21 -12 33 24 -4 -5 43 -26 -15 35 32 -8 -27 -21 -11 -1 -2 -25 -37 45 -19 40 41 -3 -13 -18 -45 -7 -47
right_child=3 2 16 23 7 11 13 14 -10 28 19 42 -14 26 -16 -17 18 38 -20 31 -22 -23 -24 27 25 30 -28 -29 -30 -31 -32 -33 -34 -35 -36 36 -38 -39 -40 -41 -42 -43 -44 44 -46 46 -48
leaf_value=-0.0030206830716347569 0.0076141150098639702 -0.039062557796318585 0.0085834479199531511 0.0069436912484734234 0.01366142022256958 -0.015589553820591229 0.025825844232802823 0.028400790017731565 0.0071968760525512824 0.02529524190598359 -0.0086021194120132448 0.0050133928633112586 0.0044657734195834714 -0.00068359745817499293 0.031339657040666519 0.010648953168410746 -0.0020500252792867673 -0.0021615438651439514 0.018252407728145258 -0.011657744734210884 0.0011607928007068679 -0.010102179144437957 0.045111745939982885 0.037078134150407477 0.043280979097009148 0.0054224464880615175 0.019811794700058009 0.030321063751750473 0.026225595544329156 0.010263942803303295 -0.010356600140066953 -0.01827141664564489 0.0108276042388851 -0.0097506664842555522 -2.8377751412792661e-05 0.018488269805271445 0.029054358448543774 0.00058173811455100696 0.0053307031180447563 -0.00019985637716709421 -0.017422196412650765 -0.017188831359539525 -0.0041390826681176416 0.00032268717294962115 0.013275410296975935 -0.0070900731115963265 -0.016630640229571503
leaf_weight=4527 6673 635 1621 673 2121 3158 637 987 813 622 9974 1142 4787 3077 760 6040 22827 2865 510 6417 4074 1784 115 359 257 3025 378 1667 888 4547 628 4722 4068 4716 2439 7714 1106 721 4084 277 8115 970 11118 7881 877 4913 1423
leaf_count=4527 6673 635 1621 673 2121 3158 637 987 813 622 9974 1142 4787 3077 760 6040 22827 2865 510 6417 4074 1784 115 359 257 3025 378 1667 888 4547 628 4722 4068 4716 2439 7714 1106 721 4084 277 8115 970 11118 7881 877 4913 1423
internal_value=1.23979e-06 -0.00274141 -0.00609828 0.0143921 0.00448992 -0.0105084 0.00130814 0.00953742 -0.0132821 0.00911142 -0.0138175 -0.00656836 -0.00185342 0.00793332 0.0149229 0.0131447 -2.85525e-05 0.00491299 -0.000536237 -0.0116943 -0.00412512 -0.000793591 0.0110185 0.0211256 -0.000325548 0.00538158 0.00156153 0.0220051 0.0148976 0.0121791 0.00270832 -0.0144623 0.0127495 -0.00645499 0.00556849 0.0204929 0.0198152 -0.010507 0.00224168 -0.0183005 -0.0188162 -0.0258548 -0.00328627 -0.00103217 0.00162066 -0.0113492 -0.0092343
internal_weight=163732 137523 93923 26209 43600 54398 26743 16857 31923 14690 31110 22475 18104 8639 7787 7027 39525 9070 37789 21113 13317 37279 1736 11519 35495 3910 3455 10846 5578 5184 3653 11139 4690 9243 9112 9179 8820 10215 6949 9997 9720 1605 12260 31585 8758 9494 6336
internal_count=163732 137523 93923 26209 43600 54398 26743 16857 31923 14690 31110 22475 18104 8639 7787 7027 39525 9070 37789 21113 13317 37279 1736 11519 35495 3910 3455 10846 5578 5184 3653 11139 4690 9243 9112 9179 8820 10215 6949 9997 9720 1605 12260 31585 8758 9494 6336
is_linear=0
shrinkage=0.110312


Tree=16
num_leaves=48
num_cat=0
split_feature=7 10 30 7 10 3 3 3 2 2 5 7 7 9 0 9 0 0 5 3 2 26 5 2 9 6 5 2 9 7 31 7 2 24 5 27 2 2 31 10 0 9 3 7 9 0 3
split_gain=421.784 242.703 152.989 62.1789 54.6189 43.8972 28.0633 22.7883 24.3101 22.622 20.9538 19.7912 18.0489 17.5084 17.3551 15.3902 18.0278 15.1265 14.4663 14.0022 15.3107 12.2395 12.1423 11.9116 13.0055 10.7922 10.7844 10.2779 10.1457 10.0714 9.70006 9.62071 9.4731 9.11507 9.13015 19.9097 9.76151 8.78094 8.32033 8.24598 7.91428 16.1653 7.79379 7.49785 8.82103 8.00791 7.35107
threshold=32.545000000000009 -0.39791289989257833 1.0000000180025095e-35 25.415000000000003 -3.9634779524108392 8.9681365740740748 112.01368634259261 11.225318287037039 0.0052881609077622812 0.14684739281368508 0.33449283105333788 21.225000000000005 18.645000000000003 420.87356880796568 1.0108042132536834 179.31984900155177 1.1523051520879164 1.0709447674331778 0.039804075501221801 13.990758101851855 0.22705979368767806 1.0000000180025095e-35 0.0086224068410836064 0.018851673012632849 234.0427062307418 1.0000000180025095e-35 0.33449283105333788 0.32186672671587696 57.770351441781848 36.425000000000004 1.0000000180025095e-35 94.435000000000016 1.0002642825163739 1.0000000180025095e-35 0.0086224068410836064 1.0000000180025095e-35 0.021768373350547199 0.058216436643259643 1.0000000180025095e-35 64.735320420517283 1.0904718289933066 117.98481063026362 336.16422453703711 12.715000000000002 256.90737643545975 1.0084673056033731 47.034571759259265
decision_type=2 2 2 2 2 2 2 2 2 2 2 2 2 2 2 2 2 2 2 2 2 2 2 2 2 2 2 2 2 2 2 2 2 2 2 2 2 2 2 2 2 2 2 2 2 2 2
left_child=1 4 7 10 6 26 19 8 29 33 12 46 40 -11 -14 16 38 -17 -18 -1 -21 25 39 -23 -25 30 -6 31 -10 -2 -5 -24 42 34 35 -9 -36 -30 -16 -4 43 -42 -8 -3 45 -45 -7
right_child=2 3 22 21 5 11 32 9 28 13 -12 -13 14 -15 15 17 18 -19 -20 20 -22 23 27 24 -26 -27 -28 -29 37 -31 -32 -33 -34 -35 36 -37 -38 -39 -40 -41 41 -43 -44 44 -46 -47 -48
leaf_value=0.02099965466693391 0.0020485317027990045 -0.022952581654569329 0.011445509257675197 -0.0057544188416827624 0.0045607997059485409 -0.0040808106368698848 0.0028506594387018103 -0.007166208656594111 0.032958636928674949 0.021933486095691571 0.0039305004526107206 -0.00042492212682521807 -0.0071703900223464012 0.0058663482665747765 -0.012427655252720965 -0.0025550376457198183 0.0045034618279919487 -0.013180856197357236 0.089314387069022866 0.0069166523166893012 0.020056283163346372 -0.0018505722787732892 0.01742962359229086 0.039574720409384388 0.0064142361922427142 -0.00085151092108447539 0.015355823816433242 0.032362983660777528 0.012510948125014743 0.012439787758143266 -0.015601770473387878 0.028785231034493972 0.01817667820565546 0.0047088305771350045 0.00080118832231459861 0.0042071455593672329 0.0081559125994512243 0.033088392292375562 -0.018956996937124087 0.028251013004682468 0.019121316637155064 -0.013636297923159943 -0.0064610792339185701 -0.012377960739933552 -0.00044713242016546274 -0.021209729634106816 -0.010047194219033256
leaf_weight=1509 4061 2230 4204 11518 6522 5588 4268 4395 419 1228 1046 14606 11287 2517 4076 2837 217 3834 27 5913 1320 2145 7934 183 668 5225 1361 729 2542 1575 1361 1027 392 10299 9273 3263 2877 280 5714 388 217 1164 1470 2575 444 2435 4569
leaf_count=1509 4061 2230 4204 11518 6522 5588 4268 4395 419 1228 1046 14606 11287 2517 4076 2837 217 3834 27 5913 1320 2145 7934 183 668 5225 1361 729 2542 1575 1361 1027 392 10299 9273 3263 2877 280 5714 388 217 1164 1470 2575 444 2435 4569
internal_value=1.22803e-06 -0.00409094 0.00766149 -0.00880385 0.00178092 -0.000743342 0.00732187 0.0043576 0.0093323 0.00305292 -0.0114642 -0.00302566 -0.0118988 0.0111377 -0.0105128 -0.0127708 -0.0155012 -0.00866275 0.0140881 0.0113343 0.00931618 -0.00399955 0.0175454 0.00253084 0.013569 -0.00508035 0.0064257 0.0197605 0.0169442 0.00495358 -0.00679579 0.018733 0.001599 0.00204702 0.000662889 -0.00232007 0.0025431 0.0145596 -0.0162396 0.0128692 -0.0161775 -0.0084823 0.000464534 -0.0175596 -0.0153521 -0.0166727 -0.00676524
internal_weight=163732 106721 57011 59203 47518 32646 14872 42729 8877 33852 38103 24763 37057 3745 27992 16705 10034 6671 244 8742 7233 21100 14282 2996 851 18104 7883 9690 3241 5636 12879 8961 6130 30107 19808 7658 12150 2822 9790 4592 9065 1381 5738 7684 5454 5010 10157
internal_count=163732 106721 57011 59203 47518 32646 14872 42729 8877 33852 38103 24763 37057 3745 27992 16705 10034 6671 244 8742 7233 21100 14282 2996 851 18104 7883 9690 3241 5636 12879 8961 6130 30107 19808 7658 12150 2822 9790 4592 9065 1381 5738 7684 5454 5010 10157
is_linear=0
shrinkage=0.110312


Tree=17
num_leaves=48
num_cat=0
split_feature=7 10 7 7 0 3 22 1 3 1 3 5 3 31 5 13 22 10 3 0 3 12 21 10 10 3 15 3 3 22 6 15 3 10 10 3 20 6 5 29 7 5 1 0 23 1 3
split_gain=337.214 207.058 125.828 48.8246 44.1871 39.1426 28.788 20.0631 17.8918 17.5417 21.738 16.5352 15.6788 12.2132 16.6531 16.7081 12.1325 12.08 24.1641 11.1205 10.1208 9.6939 8.86236 13.6058 8.50257 8.08829 8.06899 7.87627 7.87602 7.64876 7.42117 7.11156 7.02591 6.99802 6.31189 6.22132 6.18905 6.1852 8.60608 6.16513 5.70122 13.4299 15.4054 13.1798 5.67983 6.89007 5.63825
threshold=36.425000000000004 -2.0519147012686401 25.925000000000004 80.500000000000014 1.0019446977010145 36.153825231481484 1.0000000180025095e-35 -0.49858669533756345 11.225318287037039 -0.29158181336503597 6.9519502314814821 0.034544130426483459 2.0752141203703709 1.0000000180025095e-35 0.0064514536883649278 1.0000000180025095e-35 1.0000000180025095e-35 8.0041252797325484 41.996041666666677 0.99207271665521735 25.218738425925931 1.0000000180025095e-35 1.0000000180025095e-35 1.335900059425023 0.7525880166811032 2.0752141203703709 1.0000000180025095e-35 203.1391377314815 359.11321759259266 1.0000000180025095e-35 1.0000000180025095e-35 1.0000000180025095e-35 2.989623842592593 -16.494722976474545 -30.167310168592049 51.979739583333341 1.0000000180025095e-35 1.0000000180025095e-35 0.021736466973800137 1.0000000180025095e-35 17.255000000000006 0.0089305283963165213 0.21456244052837173 1.0323570886386739 1.0000000180025095e-35 0.083128587847730251 191.95988425925927
decision_type=2 2 2 2 2 2 2 2 2 2 2 2 2 2 2 2 2 2 2 2 2 2 2 2 2 2 2 2 2 2 2 2 2 2 2 2 2 2 2 2 2 2 2 2 2 2 2
left_child=1 5 4 11 6 9 8 28 25 33 32 -2 -4 26 15 -15 27 19 36 -14 -5 -16 44 -24 -22 -3 40 -9 34 -20 39 37 -11 -1 -7 -23 -19 38 -8 -10 41 42 -6 -43 45 -21 -31
right_child=3 2 12 20 13 7 31 16 30 10 -12 -13 17 14 21 -17 -18 18 29 22 24 35 23 -25 -26 -27 -28 -29 -30 46 -32 -33 -34 -35 -36 -37 -38 -39 -40 -41 -42 43 -44 -45 -46 -47 -48
leaf_value=0.034690577279703372 0.0043556704279412274 0.0083794458078380769 0.012451950522197729 0.021648933809146922 -0.027106324715297826 0.034529756274715911 -0.043215968250305631 0.0038354779897549251 -0.012516732493606086 0.028079993861808702 0.0057982678262385352 0.011982068876134658 0.0017963928486904258 -5.9750229824188139e-05 -0.012505092367420536 -0.014926343927519146 -0.0065035455331792303 0.044258668464236608 -0.0010048025506428507 -0.0019426336353402791 0.011345830574843176 -0.02138615807930988 -0.0022422282439764061 -0.011583834921033039 0.018642455561839757 -0.0014083607223988415 0.014791395778722105 -0.0012610714366580714 -0.00036938077942779806 0.020426322152387554 -0.0047298187507394344 0.030832717835426082 0.01417092832718724 0.016637072060591767 0.012148998834435798 -0.012911686953127237 0.018483567610154981 -0.014189077159171448 -0.016095495572510568 -0.0039409962143304106 -0.007767852115250517 -0.016571089287338567 0.0082281931037374873 0.0041620424632119917 -0.0044096839110095067 0.0029042474524119976 0.0041932339577720476
leaf_weight=310 9112 1166 1148 3650 1045 165 243 10296 3285 604 9024 5578 10648 2049 6927 1669 2333 176 3015 9117 4344 3548 5695 2845 3525 8608 176 5750 606 384 12386 37 1658 1677 2122 1506 322 1701 346 1481 10328 762 175 730 4788 5864 808
leaf_count=310 9112 1166 1148 3650 1045 165 243 10296 3285 604 9024 5578 10648 2049 6927 1669 2333 176 3015 9117 4344 3548 5695 2845 3525 8608 176 5750 606 384 12386 37 1658 1677 2122 1506 322 1701 346 1481 10328 762 175 730 4788 5864 808
internal_value=1.23207e-06 -0.00218425 -0.00466339 0.0114687 -0.00804778 0.00520594 -0.0050248 0.00227262 -0.00400721 0.00990665 0.00822302 0.00725195 -0.000270035 -0.0111059 -0.0131864 -0.00673489 0.000928313 -0.00060472 0.00467469 -0.00124242 0.0168454 -0.0151879 -0.00238547 -0.00535497 0.0146157 -0.00024018 -0.00863398 0.00200912 0.0108106 0.00195279 -0.00615371 -0.0167949 0.0178918 0.0194637 0.0137727 -0.0188629 0.0276369 -0.0175727 -0.0273185 -0.0098529 -0.00895088 -0.0134531 -0.0220356 -0.00642868 -0.00110251 -4.53237e-05 0.00943108
internal_weight=163732 137523 102978 26209 58168 34545 29253 21272 26926 13273 11286 14690 44810 28915 15699 3718 18379 43662 4705 38957 11519 11981 28309 8540 7869 9774 13216 16046 2893 4207 17152 2327 2262 1987 2287 5054 498 2290 589 4766 13040 2712 1220 1492 19769 14981 1192
internal_count=163732 137523 102978 26209 58168 34545 29253 21272 26926 13273 11286 14690 44810 28915 15699 3718 18379 43662 4705 38957 11519 11981 28309 8540 7869 9774 13216 16046 2893 4207 17152 2327 2262 1987 2287 5054 498 2290 589 4766 13040 2712 1220 1492 19769 14981 1192
is_linear=0
shrinkage=0.110312


Tree=18
num_leaves=48
num_cat=0
split_feature=7 10 30 10 7 5 2 2 5 5 5 6 31 10 7 24 3 27 2 0 10 3 3 5 3 1 0 2 3 0 3 3 1 15 10 3 3 3 5 7 7 29 2 3 7 3 2
split_gain=269.19 144.696 117.112 31.1323 26.8159 25.7965 27.7292 25.1303 21.0054 20.7965 18.5482 15.0913 11.7365 11.0777 9.90574 9.80607 9.98661 11.2113 9.14496 9.07746 8.50532 8.17801 8.15422 7.66407 6.71074 6.53405 6.09541 6.05496 6.76414 5.95158 6.17972 6.16541 6.40327 5.92313 5.77291 6.68449 5.65398 5.64216 5.49818 5.27535 5.0491 4.91204 4.90371 4.88068 4.83996 4.82938 4.51837
threshold=28.895000000000003 -0.58552449044855215 1.0000000180025095e-35 -2.6390074315864553 20.115000000000006 0.10006503068838023 0.0096046660288085627 0.13248084807317684 0.0094354489160608668 0.031198234266896177 0.047736784673412656 1.0000000180025095e-35 1.0000000180025095e-35 -6.4598300195046034 98.315000000000012 1.0000000180025095e-35 35.960086805555562 1.0000000180025095e-35 0.030507903486796818 0.97973556781682447 12.232251060656322 2.0752141203703709 4.1609375000000011 0.0067499691521386036 359.11321759259266 0.035211438880573862 1.1711264678232889 0.046218870105442178 2.9973321759259264 1.0290350122091594 4.1609375000000011 110.9598726851852 0.19757650838107371 1.0000000180025095e-35 -7.9364865567948764 3.9896817129629634 203.1391377314815 2.0752141203703709 0.0045864770696340375 11.965000000000002 36.945000000000007 1.0000000180025095e-35 0.76069772122815149 3.2034780092592596 38.185000000000009 7.9515856481481491 0.032441393361520236
decision_type=2 2 2 2 2 2 2 2 2 2 2 2 2 2 2 2 2 2 2 2 2 2 2 2 2 2 2 2 2 2 2 2 2 2 2 2 2 2 2 2 2 2 2 2 2 2 2
left_child=1 3 5 10 21 7 19 15 -9 41 13 12 29 24 20 16 18 36 40 -7 23 -3 -11 -4 42 -14 38 28 -8 -6 -31 32 -32 39 -12 -36 46 -25 -13 -23 -2 -5 -1 -40 -21 -27 -18
right_child=2 4 14 9 11 6 27 8 -10 22 34 26 25 -15 -16 -17 17 -19 -20 44 -22 33 -24 37 -26 45 -28 -29 -30 30 31 -33 -34 -35 35 -37 -38 -39 43 -41 -42 -43 -44 -45 -46 -47 -48
leaf_value=0.0073976901242714752 0.0004152559266314627 0.0034520510704311789 0.0054336338520461543 -0.0072388502902006558 -0.003314544400002757 0.0094485415047864067 0.03074707111680235 0.0046853175000378952 0.020208347818756113 0.0077600826309228745 0.028402031265235744 0.0047614523412310315 -0.007977956922302883 0.0004551176770033548 0.023059437315439489 0.0037649971729211812 -0.002692665428476319 0.0025971320024836845 0.010978564136332525 0.0010046779923948317 0.017572209593011191 -0.019679265380697308 0.00016497041283444985 0.031616409553554263 -0.0030030510836420456 0.014927834263135559 0.033592897060720446 0.031569724649809519 0.013130265452728959 0.0096380935802142537 -0.010947603026927381 -0.0040120399058433441 0.0065242598241481327 0.01096897551552776 0.02627109365210327 0.0092871907273767654 -0.0059453656235724534 0.012462116229899175 0.0044983240753759942 -0.011352340701003945 0.0080791205069069005 -0.0014853396460446421 0.021071649941603297 -0.0043232427735659471 0.014882971390507496 -0.014398844793991943 0.0031727351655791961
leaf_weight=4543 8417 447 2124 6198 7006 3101 316 4050 1437 2144 258 1017 4956 7753 1318 10416 8024 5835 1377 4804 3605 987 8692 192 726 69 55 358 1656 246 5599 3015 267 139 317 2541 5428 7043 821 15198 1194 2549 343 10739 326 4091 1995
leaf_count=4543 8417 447 2124 6198 7006 3101 316 4050 1437 2144 258 1017 4956 7753 1318 10416 8024 5835 1377 4804 3605 987 8692 192 726 69 55 358 1656 246 5599 3015 267 139 317 2541 5428 7043 821 15198 1194 2549 343 10739 326 4091 1995
internal_value=1.15749e-06 -0.00401166 0.00498674 0.00141175 -0.00759048 0.00280813 0.00774551 0.0017256 0.0087526 -0.00156154 0.00494464 -0.0059644 -0.00752177 0.00315736 0.0139456 0.000822196 -0.000127697 -0.00152211 0.0025729 0.00473726 0.013018 -0.0112629 0.00166816 0.0112626 0.00688992 -0.0106859 -0.00285122 0.0183682 0.0159622 -0.0057335 -0.00758988 -0.0080678 -0.0101516 -0.0116661 0.0126082 0.0111764 -0.00307822 0.0129731 -0.00301226 -0.0118609 0.0013679 -0.00556251 0.00836026 -0.00369645 0.00188842 -0.0139101 -0.00152453
internal_weight=163732 90716 73016 36064 54652 58734 10561 48173 5487 19583 16481 37881 25249 13365 14282 42686 32270 21282 10988 8231 12964 16771 10836 9359 5612 9116 12632 2330 1972 16133 9127 8881 5866 16324 3116 2858 15447 7235 12577 16185 9611 8747 4886 11560 5130 4160 10019
internal_count=163732 90716 73016 36064 54652 58734 10561 48173 5487 19583 16481 37881 25249 13365 14282 42686 32270 21282 10988 8231 12964 16771 10836 9359 5612 9116 12632 2330 1972 16133 9127 8881 5866 16324 3116 2858 15447 7235 12577 16185 9611 8747 4886 11560 5130 4160 10019
is_linear=0
shrinkage=0.110312


Tree=19
num_leaves=48
num_cat=0
split_feature=7 10 7 0 7 0 3 3 0 22 7 15 10 9 3 3 31 9 3 2 10 3 9 10 9 3 3 9 9 13 10 13 3 13 0 1 6 9 1 3 10 9 3 29 15 31 23
split_gain=214.16 110.024 99.1409 24.0859 21.3183 21.4541 19.5106 15.8886 15.1219 13.9901 13.8344 12.4918 11.7678 11.1825 10.9618 10.8365 10.5756 10.0321 9.90794 7.94329 7.22115 7.2024 6.69763 6.61601 16.8337 7.29537 6.02932 5.91326 6.15949 6.14818 5.591 5.54365 5.53892 6.05703 5.44779 5.35281 5.54923 8.92399 5.58603 5.17572 5.0697 5.03991 4.97956 4.88811 4.87932 4.71819 4.63928
threshold=27.395000000000003 -1.0694327201051903 38.385000000000012 0.97973556781682447 19.185000000000006 1.0031439625743677 74.229120370370381 6.9900057870370382 0.79696073075427654 1.0000000180025095e-35 84.52500000000002 1.0000000180025095e-35 -6.0862010868283152 32.94775026419908 20.951261574074078 44.955063657407415 1.0000000180025095e-35 47.226848192607527 79.206024305555573 0.00039705723405098967 -17.656512205019158 683.14697337962969 177.73862055725445 9.9719605650151131 243.28863035013055 2.0752141203703709 13.007089120370372 339.2533239075064 41.718885112096984 1.0000000180025095e-35 3.8858265974415707 1.0000000180025095e-35 296.1463425925927 1.0000000180025095e-35 0.85242558795627532 0.28682588411814725 1.0000000180025095e-35 155.48308895849786 0.04844737149042997 51.979739583333341 -36.541892623616953 119.04492336970436 13.007089120370372 1.0000000180025095e-35 1.0000000180025095e-35 1.0000000180025095e-35 1.0000000180025095e-35
decision_type=2 2 2 2 2 2 2 2 2 2 2 2 2 2 2 2 2 2 2 2 2 2 2 2 2 2 2 2 2 2 2 2 2 2 2 2 2 2 2 2 2 2 2 2 2 2 2
left_child=1 6 3 7 13 14 8 34 42 20 18 23 40 19 -6 -11 27 44 31 -3 39 26 -13 25 -25 -5 -12 28 -7 -29 -28 41 -18 -34 -2 36 -15 38 -38 -9 -8 -4 -1 -16 -10 -27 -26
right_child=2 4 10 11 5 16 12 9 17 15 21 22 -14 35 43 -17 32 -19 -20 -21 -22 -23 -24 24 46 45 30 29 -30 -31 -32 -33 33 -35 -36 -37 37 -39 -40 -41 -42 -43 -44 -45 -46 -47 -48
leaf_value=0.021232177312230836 0.025852013765892495 -0.0076515778623625534 0.018313739455643976 0.0098464082403393449 0.00048450521367621722 0.0064437139735685142 0.034095006870991186 0.026755683118408872 0.0099246414320182785 0.0033072710337273218 0.02096426929300051 0.043045283300932054 -0.0043587078576736039 -0.013546632893125382 -0.0071212138647617339 -0.0052665740698868485 -0.010828322008733259 0.0014486761628881477 0.0031512126580999517 0.012260683158001559 0.0047408356026131951 -0.0018949162915081264 0.010737940679246931 0.02694622187798687 0.0032425303840408399 -0.00063923519010964931 0.011131469919919703 0.005260323968681542 -0.0068452854778111747 -0.0062222375279838878 0.017403318966998697 0.01907474261747771 0.0034613050435530575 -0.010013044501212631 0.010557927908169212 0.006095075410655155 -0.011825794834608796 -0.00099886769294613479 0.019916650968838757 0.0096347233173638986 0.0031057773950668799 0.0078117603888045077 0.0090696111738336697 -0.0020562665267899976 0.044484123906599962 -0.0075098670230096852 -0.0097133025243410376
leaf_weight=470 318 563 659 784 8353 440 65 279 1420 4139 1663 90 6862 7060 5514 3165 10050 11117 3031 429 15181 319 573 358 3144 28975 4415 1187 11618 1086 2852 881 742 895 2605 214 4286 1329 68 936 3134 3568 3196 4003 51 1269 376
leaf_count=470 318 563 659 784 8353 440 65 279 1420 4139 1663 90 6862 7060 5514 3165 10050 11117 3031 429 15181 319 573 358 3144 28975 4415 1187 11618 1086 2852 881 742 895 2605 214 4286 1329 68 936 3134 3568 3196 4003 51 1269 376
internal_value=1.17889e-06 -0.00387847 0.00410373 0.00204491 -0.00656895 -0.0053748 0.00203485 0.00455411 0.00439798 0.00360746 0.0114672 0.000166721 -0.00178285 -0.0103257 -0.00243169 -0.00040799 -0.00739609 0.00258185 0.00814892 0.000960988 0.00539624 0.0143864 0.0151599 -0.000118288 0.00417711 -0.000655243 0.0149682 -0.00538716 -0.00636 -0.00022565 0.0135943 0.0111136 -0.00985903 -0.00390598 0.0122271 -0.0111899 -0.0114805 -0.00891235 -0.0113272 0.0135782 0.003742 0.00945162 0.0106324 -0.00499117 0.0111411 -0.000927691 0.00185694
internal_weight=163732 84152 79580 62192 57837 43888 26315 26623 16254 23700 17388 35569 10061 13949 17870 7304 26018 12588 8139 992 16396 9249 663 34906 3878 31028 8930 14331 12058 2273 7267 5108 11687 1637 2923 12957 12743 5683 4354 1215 3199 4227 3666 9517 1471 30244 3520
internal_count=163732 84152 79580 62192 57837 43888 26315 26623 16254 23700 17388 35569 10061 13949 17870 7304 26018 12588 8139 992 16396 9249 663 34906 3878 31028 8930 14331 12058 2273 7267 5108 11687 1637 2923 12957 12743 5683 4354 1215 3199 4227 3666 9517 1471 30244 3520
is_linear=0
shrinkage=0.110312


Tree=20
num_leaves=48
num_cat=0
split_feature=7 10 7 7 3 10 10 3 5 5 2 31 3 22 10 2 14 7 5 12 5 7 3 31 10 0 2 10 5 3 22 10 22 2 3 6 3 15 3 10 1 15 5 7 7 7 5
split_gain=172.373 108.477 64.8345 24.8513 23.5581 21.5411 15.8979 16.7337 14.9939 11.2364 19.5296 10.9667 10.8882 10.7332 7.94547 7.90741 7.45141 7.05049 6.98457 6.72367 9.4564 16.0114 11.4483 6.67959 6.62867 6.5595 6.52204 6.38887 5.88226 5.70182 5.63384 5.5712 5.45608 5.37787 5.23814 5.22589 5.10211 5.07683 4.996 4.98403 4.54788 4.54529 4.39607 4.16489 3.86619 3.75476 4.79
threshold=36.425000000000004 -2.0519147012686401 25.415000000000003 84.52500000000002 113.08130208333334 -0.054378488212581018 -7.9364865567948764 7.9995312500000013 0.041682526772091312 0.062668844118874509 0.014390572622602576 1.0000000180025095e-35 17.202534722222229 1.0000000180025095e-35 -36.541892623616953 0.026817826303377028 1.0000000180025095e-35 32.135000000000012 0.33449283105333788 1.0000000180025095e-35 0.014912762925940784 14.355000000000002 4.1609375000000011 1.0000000180025095e-35 -16.494722976474545 0.99207271665521735 0.49957765324112496 12.232251060656322 0.33449283105333788 683.14697337962969 1.0000000180025095e-35 2.0925408851187179 1.0000000180025095e-35 0.0014389826143824569 3.2034780092592596 1.0000000180025095e-35 4.9597511574074078 1.0000000180025095e-35 168.95870949074074 23.314402231002759 -0.1971243651444908 1.0000000180025095e-35 0.06648859421373185 19.955000000000002 20.025000000000002 20.115000000000006 0.11077782315171307
decision_type=2 2 2 2 2 2 2 2 2 2 2 2 2 2 2 2 2 2 2 2 2 2 2 2 2 2 2 2 2 2 2 2 2 2 2 2 2 2 2 2 2 2 2 2 2 2 2
left_child=1 4 5 12 6 8 24 28 13 11 25 27 15 35 -6 34 -15 -12 43 37 21 -21 33 -24 -1 -11 -14 41 40 36 -16 -27 -29 -22 -2 -3 -5 45 -34 -38 -8 -4 -26 -10 -25 46 -7
right_child=3 2 9 29 14 19 7 -9 18 10 17 -13 26 16 30 -17 -18 -19 -20 20 22 -23 23 44 42 31 -28 32 -30 -31 -32 -33 38 -35 -36 -37 39 -39 -40 -41 -42 -43 -44 -45 -46 -47 -48
leaf_value=0.021327108113549983 0.016168485181065704 -0.0090604131501753442 -0.0015840577790486555 0.023860620781211987 0.02551133930732899 -0.0074404392354177756 0.020970846312626901 0.0028496644091404429 -0.0042878499663842572 0.0044237640187912621 0.043590014178342837 -0.0092820018049788559 0.0034943424777683385 -0.012764396964758239 0.00051492961093713477 0.019298114530790937 -0.041434189722200303 0.014913500963987546 0.0074342896033639007 -0.027066080797191576 -0.00028219548148255083 -0.0022541123552346537 -0.0095328915625296773 -0.020565509891986883 0.0085350826307888181 -0.0017477841614230902 0.017362181368861283 0.0011987885647035939 0.021399991666432867 -0.0016862771553064985 -0.0069191894323014118 0.0063228689961009124 0.030312258598646565 0.032362602432949548 0.0058538355524323238 -0.0036501883308734284 0.011380933365238032 0.010627232420739567 0.0077112296522950418 0.018330507209789921 0.0076021722214225608 0.0095540069131324901 0.020423288058027209 0.0001335051499591901 -0.013513369140657259 -0.0056147190888770964 -0.014349795839610343
leaf_weight=756 752 2938 29838 526 146 6332 356 14285 4314 5002 128 2076 11895 1321 11033 937 120 562 1143 357 294 2755 3137 1590 3166 7346 427 1449 602 319 1397 1212 160 77 2949 8346 6864 202 463 1540 2374 452 430 6495 2357 10998 1514
leaf_count=756 752 2938 29838 526 146 6332 356 14285 4314 5002 128 2076 11895 1321 11033 937 120 562 1143 357 294 2755 3137 1590 3166 7346 427 1449 602 319 1397 1212 160 77 2949 8346 6864 202 463 1540 2374 452 430 6495 2357 10998 1514
internal_value=1.19666e-06 -0.00156133 -0.00335576 0.00819994 0.00378775 -0.00597696 0.00596725 0.00449197 -0.00356968 -0.000432906 0.00217219 -0.0015109 0.00569106 -0.00620487 -1.9639e-05 0.0102467 -0.0151688 0.0202678 -0.000763812 -0.00798285 -0.0102149 -0.00510543 -0.012347 -0.0133364 0.0119375 0.00125047 0.00397581 -0.0010122 0.0115309 0.0127997 -0.000320809 -0.000604336 0.00491297 0.0065321 0.00795217 -0.00505933 0.0133174 -0.00674416 0.0135407 0.0126557 0.00935004 -0.00141764 0.00996006 -0.00163117 -0.0163572 -0.00693076 -0.00877481
internal_weight=163732 137523 102978 26209 34545 54290 21969 17617 24677 48688 14250 34438 16960 12725 12576 4638 1441 690 11952 29613 10567 3112 7455 7084 4352 13560 12322 32362 3332 9249 12430 8558 2072 371 3701 11284 8930 19046 623 8404 2730 30290 3596 10809 3947 18844 7846
internal_count=163732 137523 102978 26209 34545 54290 21969 17617 24677 48688 14250 34438 16960 12725 12576 4638 1441 690 11952 29613 10567 3112 7455 7084 4352 13560 12322 32362 3332 9249 12430 8558 2072 371 3701 11284 8930 19046 623 8404 2730 30290 3596 10809 3947 18844 7846
is_linear=0
shrinkage=0.110312


Tree=21
num_leaves=48
num_cat=0
split_feature=7 10 7 7 5 10 5 6 10 5 3 2 9 9 9 2 0 7 0 0 3 5 31 2 10 7 1 10 12 9 3 2 9 7 6 10 9 23 29 9 12 3 22 0 9 9 7
split_gain=138.047 81.1692 40.0889 31.1779 20.6585 15.2103 14.1412 12.6149 10.732 8.89788 8.74737 12.9113 8.27053 8.24782 6.87367 6.80018 6.75333 6.90134 6.74969 6.358 6.33108 6.0687 6.04707 5.99404 5.78208 5.45784 5.49047 5.15786 5.01737 14.5123 9.53017 17.5 6.31512 4.86983 5.51937 4.85278 10.0757 6.49005 4.82799 4.18686 4.74392 4.11972 4.06595 4.01579 3.97606 3.96953 3.794
threshold=35.235000000000007 -1.0335137064224476 25.925000000000004 79.285000000000011 0.022747383721778425 -4.9485848672515518 0.33449283105333788 1.0000000180025095e-35 -6.4598300195046034 0.33449283105333788 11.225318287037039 0.0068452292040016146 309.00324244602604 528.19848955733653 57.770351441781848 0.39931159405154953 1.1303870392497224 17.975000000000005 1.0384489617551638 0.95254781367503893 25.218738425925931 0.031292709432648641 1.0000000180025095e-35 0.13248084807317684 64.735320420517283 11.965000000000002 0.020145230793976603 -30.167310168592049 1.0000000180025095e-35 253.50997555105354 25.218738425925931 0.0028382313158809382 41.718885112096984 23.615000000000006 1.0000000180025095e-35 6.8998476693168023 243.28863035013055 1.0000000180025095e-35 1.0000000180025095e-35 93.402930400781898 1.0000000180025095e-35 329.01207754629633 1.0000000180025095e-35 1.0037958908904916 47.226848192607527 107.28593301958341 88.175000000000011
decision_type=2 2 2 2 2 2 2 2 2 2 2 2 2 2 2 2 2 2 2 2 2 2 2 2 2 2 2 2 2 2 2 2 2 2 2 2 2 2 2 2 2 2 2 2 2 2 2
left_child=1 4 6 19 8 14 7 25 13 -7 11 44 16 27 -6 -16 17 45 -8 21 23 -2 35 -5 41 26 -3 -1 30 32 31 -27 -30 34 -10 -12 -37 -38 -32 40 -13 46 -35 -19 -4 -9 -22
right_child=3 2 10 20 5 9 18 12 33 -11 22 39 -14 -15 15 -17 -18 43 -20 -21 24 -23 -24 -25 -26 28 -28 -29 29 -31 38 -33 -34 42 -36 36 37 -39 -40 -41 -42 -43 -44 -45 -46 -47 -48
